{"learner":{"attributes":{"scikit_learn":"{\"_estimator_type\": \"regressor\"}"},"feature_names":[],"feature_types":[],"gradient_booster":{"model":{"gbtree_model_param":{"num_parallel_tree":"1","num_trees":"100"},"iteration_indptr":[0,1,2,3,4,5,6,7,8,9,10,11,12,13,14,15,16,17,18,19,20,21,22,23,24,25,26,27,28,29,30,31,32,33,34,35,36,37,38,39,40,41,42,43,44,45,46,47,48,49,50,51,52,53,54,55,56,57,58,59,60,61,62,63,64,65,66,67,68,69,70,71,72,73,74,75,76,77,78,79,80,81,82,83,84,85,86,87,88,89,90,91,92,93,94,95,96,97,98,99,100],"tree_info":[0,0,0,0,0,0,0,0,0,0,0,0,0,0,0,0,0,0,0,0,0,0,0,0,0,0,0,0,0,0,0,0,0,0,0,0,0,0,0,0,0,0,0,0,0,0,0,0,0,0,0,0,0,0,0,0,0,0,0,0,0,0,0,0,0,0,0,0,0,0,0,0,0,0,0,0,0,0,0,0,0,0,0,0,0,0,0,0,0,0,0,0,0,0,0,0,0,0,0,0],"trees":[{"base_weights":[-5.037012E-9,-3.6E-1,9.473684E-2,-1.3603573E-1,1.03571415E-2,-1.9809525E-1,1.4658892E-1,-2.1571428E-2,3.857143E-2,4.1714273E-2,-1.1948572E-1,6.0079362E-2,1.9066964E-1,-2.3571433E-2,4.4428572E-2,-9.870128E-3,1.4874999E-1,1.842857E-2,5.9171427E-2,2.7500004E-2,-2.4642859E-2,1.7428566E-2,5.0785717E-2,1.6071395E-3,1.19142905E-2],"categories":[],"categories_nodes":[],"categories_segments":[],"categories_sizes":[],"default_left":[0,0,0,0,0,0,0,0,0,0,0,0,0,0,0,0,0,0,0,0,0,0,0,0,0],"id":0,"left_children":[1,3,5,-1,7,9,11,-1,-1,13,-1,15,17,-1,-1,19,21,-1,-1,23,-1,-1,-1,-1,-1],"loss_changes":[2.455579E0,5.2385795E-1,8.9452386E-1,0E0,4.814302E-2,4.4868246E-1,1.7540145E-1,0E0,0E0,7.5616606E-2,0E0,1.1311257E-1,1.50491E-2,0E0,0E0,3.1968184E-2,5.0585866E-3,0E0,0E0,1.9509229E-3,0E0,0E0,0E0,0E0,0E0],"parents":[2147483647,0,0,1,1,2,2,4,4,5,5,6,6,9,9,11,11,12,12,15,15,16,16,19,19],"right_children":[2,4,6,-1,8,10,12,-1,-1,14,-1,16,18,-1,-1,20,22,-1,-1,24,-1,-1,-1,-1,-1],"split_conditions":[3.0290045E-2,-1.0302486E-2,-2.5559505E-4,-1.3603573E-1,4.5021683E-2,2.2385754E-2,-1.2773778E-2,-2.1571428E-2,3.857143E-2,6.331447E-2,-1.1948572E-1,2.3662087E-2,3.315216E-3,-2.3571433E-2,4.4428572E-2,1.2327722E-1,9.050913E-3,1.842857E-2,5.9171427E-2,4.120153E-3,-2.4642859E-2,1.7428566E-2,5.0785717E-2,1.6071395E-3,1.19142905E-2],"split_indices":[187,3,2587,0,772,1548,383,0,0,1,0,1614,1796,0,0,1545,1570,0,0,1575,0,0,0,0,0],"split_type":[0,0,0,0,0,0,0,0,0,0,0,0,0,0,0,0,0,0,0,0,0,0,0,0,0],"sum_hessian":[7E1,1.4E1,5.6E1,1.1E1,3E0,8E0,4.8E1,2E0,1E0,4E0,4E0,1.7E1,3.1E1,2E0,2E0,1E1,7E0,2E0,2.9E1,7E0,3E0,2E0,5E0,3E0,4E0],"tree_param":{"num_deleted":"0","num_feature":"3088","num_nodes":"25","size_leaf_vector":"1"}},{"base_weights":[-1.1686158E-3,-2.599357E-1,6.694849E-2,-9.862589E-2,1.1499986E-2,-1.496254E-1,1.0536107E-1,-1.7257148E-2,3.2785714E-2,3.337141E-2,-9.080914E-2,1.392929E-2,1.2558499E-1,-1.8857146E-2,3.5542853E-2,5.6276526E-2,-1.909821E-2,1.3458194E-1,3.5689987E-2,2.6095713E-2,1.1498213E-2,1.4599308E-1,5.3194027E-2,1.3768566E-2,4.0764273E-3,8.303583E-4,4.045713E-3,1.8405002E-2,4.5861274E-2,1.9417705E-2,-6.696403E-4],"categories":[],"categories_nodes":[],"categories_segments":[],"categories_sizes":[],"default_left":[0,0,0,0,0,0,0,0,0,0,0,0,0,0,0,0,0,0,0,0,0,0,0,0,0,0,0,0,0,0,0],"id":1,"left_children":[1,3,5,-1,7,9,11,-1,-1,13,-1,15,17,-1,-1,19,-1,21,23,-1,25,27,29,-1,-1,-1,-1,-1,-1,-1,-1],"loss_changes":[1.2688813E0,2.8397262E-1,4.8995697E-1,0E0,3.328471E-2,2.622062E-1,8.8856995E-2,0E0,0E0,4.8394624E-2,0E0,3.643982E-2,2.7548015E-2,0E0,0E0,8.625556E-3,0E0,2.5668323E-2,5.0414633E-4,0E0,3.207964E-5,8.6683035E-3,3.979411E-3,0E0,0E0,0E0,0E0,0E0,0E0,0E0,0E0],"parents":[2147483647,0,0,1,1,2,2,4,4,5,5,6,6,9,9,11,11,12,12,15,15,17,17,18,18,20,20,21,21,22,22],"right_children":[2,4,6,-1,8,10,12,-1,-1,14,-1,16,18,-1,-1,20,-1,22,24,-1,26,28,30,-1,-1,-1,-1,-1,-1,-1,-1],"split_conditions":[3.0290045E-2,-1.0302486E-2,-2.5559505E-4,-9.862589E-2,4.5021683E-2,2.2385754E-2,1.29E-1,-1.7257148E-2,3.2785714E-2,6.331447E-2,-9.080914E-2,1.2327722E-1,1.1188447E-1,-1.8857146E-2,3.5542853E-2,1.6805738E-2,-1.909821E-2,9.4815E-2,-2.2692787E-2,2.6095713E-2,1.44664645E-2,3.6697034E-3,3.1145256E-2,1.3768566E-2,4.0764273E-3,8.303583E-4,4.045713E-3,1.8405002E-2,4.5861274E-2,1.9417705E-2,-6.696403E-4],"split_indices":[187,3,2587,0,772,1548,770,0,0,1,0,1545,2022,0,0,1549,0,102,773,0,1545,1823,1547,0,0,0,0,0,0,0,0],"split_type":[0,0,0,0,0,0,0,0,0,0,0,0,0,0,0,0,0,0,0,0,0,0,0,0,0,0,0,0,0,0,0],"sum_hessian":[7E1,1.4E1,5.6E1,1.1E1,3E0,8E0,4.8E1,2E0,1E0,4E0,4E0,9E0,3.9E1,2E0,2E0,6E0,3E0,3.5E1,4E0,3E0,3E0,3E1,5E0,2E0,2E0,1E0,2E0,3E0,2.7E1,4E0,1E0],"tree_param":{"num_deleted":"0","num_feature":"3088","num_nodes":"31","size_leaf_vector":"1"}},{"base_weights":[-1.4446088E-3,-8.347883E-2,3.3180233E-2,-1.3057321E-1,6.592297E-2,1.7984757E-2,-6.285383E-2,-7.137124E-2,7.833393E-2,-5.867404E-3,-2.3830514E-2,-3.043293E-2,9.109542E-2,-1.4886435E-2,1.5888215E-3,2.290199E-2,1.0305469E-1,-2.358851E-3,1.2880037E-2,4.3131854E-2,2.5638102E-2],"categories":[],"categories_nodes":[],"categories_segments":[],"categories_sizes":[],"default_left":[0,0,0,0,0,0,0,0,0,0,0,0,0,0,0,0,0,0,0,0,0],"id":2,"left_children":[1,-1,3,5,7,-1,-1,9,11,-1,-1,13,15,-1,-1,17,19,-1,-1,-1,-1],"loss_changes":[6.897525E-1,0E0,3.5175884E-1,1.7799738E-1,9.7604245E-2,0E0,0E0,5.354658E-4,7.2173685E-2,0E0,0E0,4.376318E-3,3.433931E-2,0E0,0E0,5.267694E-3,1.4936656E-2,0E0,0E0,0E0,0E0],"parents":[2147483647,0,0,2,2,3,3,4,4,7,7,8,8,11,11,12,12,15,15,16,16],"right_children":[2,-1,4,6,8,-1,-1,10,12,-1,-1,14,16,-1,-1,18,20,-1,-1,-1,-1],"split_conditions":[-2.0189132E-4,-8.347883E-2,1.013884E-2,-1.9711953E-2,6.43871E-3,1.7984757E-2,-6.285383E-2,-1.3461632E-2,4.883987E-3,-5.867404E-3,-2.3830514E-2,3.4518796E-3,1.5651796E-2,-1.4886435E-2,1.5888215E-3,1.7792769E-2,-7.401667E-4,-2.358851E-3,1.2880037E-2,4.3131854E-2,2.5638102E-2],"split_indices":[3078,0,2209,7,2002,0,0,775,1938,0,0,0,1819,0,0,1565,2391,0,0,0,0],"split_type":[0,0,0,0,0,0,0,0,0,0,0,0,0,0,0,0,0,0,0,0,0],"sum_hessian":[7E1,7E0,6.3E1,1E1,5.3E1,3E0,7E0,4E0,4.9E1,1E0,3E0,5E0,4.4E1,3E0,2E0,7E0,3.7E1,3E0,4E0,9E0,2.8E1],"tree_param":{"num_deleted":"0","num_feature":"3088","num_nodes":"21","size_leaf_vector":"1"}},{"base_weights":[-2.3077345E-3,-6.1565634E-2,2.3092205E-2,-9.5480256E-2,4.6818223E-2,1.39381895E-2,-1.5451567E-1,-5.589944E-2,5.615362E-2,-5.4344017E-2,-2.4779389E-2,-4.9872906E-3,-1.8468646E-2,-2.3519317E-2,6.5528825E-2,-1.1536986E-2,1.2710572E-3,7.212388E-2,-1.6563773E-3,1.5748499E-2,2.8286653E-2,3.2961252E-3,-4.1243136E-3],"categories":[],"categories_nodes":[],"categories_segments":[],"categories_sizes":[],"default_left":[0,0,0,0,0,0,0,0,0,0,0,0,0,0,0,0,0,0,0,0,0,0,0],"id":3,"left_children":[1,-1,3,5,7,-1,9,11,13,-1,-1,-1,-1,15,17,-1,-1,19,21,-1,-1,-1,-1],"loss_changes":[3.7066787E-1,0E0,1.8451835E-1,9.935382E-2,5.4920122E-2,0E0,3.5959482E-4,8.85902E-5,3.8888678E-2,0E0,0E0,0E0,0E0,2.6505492E-3,2.0058528E-2,0E0,0E0,1.2888342E-2,9.1542886E-4,0E0,0E0,0E0,0E0],"parents":[2147483647,0,0,2,2,3,3,4,4,6,6,7,7,8,8,13,13,14,14,17,17,18,18],"right_children":[2,-1,4,6,8,-1,10,12,14,-1,-1,-1,-1,16,18,-1,-1,20,22,-1,-1,-1,-1],"split_conditions":[-2.0189132E-4,-6.1565634E-2,1.013884E-2,-1.9711953E-2,6.43871E-3,1.39381895E-2,2.4419326E-2,-1.3461632E-2,4.883987E-3,-5.4344017E-2,-2.4779389E-2,-4.9872906E-3,-1.8468646E-2,3.4518796E-3,7.557334E-2,-1.1536986E-2,1.2710572E-3,-2.9641858E-4,6.193412E-2,1.5748499E-2,2.8286653E-2,3.2961252E-3,-4.1243136E-3],"split_indices":[3078,0,2209,7,2002,0,1550,775,1938,0,0,0,0,0,1892,0,0,2814,1545,0,0,0,0],"split_type":[0,0,0,0,0,0,0,0,0,0,0,0,0,0,0,0,0,0,0,0,0,0,0],"sum_hessian":[7E1,7E0,6.3E1,1E1,5.3E1,3E0,7E0,4E0,4.9E1,4E0,3E0,1E0,3E0,5E0,4.4E1,3E0,2E0,4E1,4E0,2.3E1,1.7E1,2E0,2E0],"tree_param":{"num_deleted":"0","num_feature":"3088","num_nodes":"23","size_leaf_vector":"1"}},{"base_weights":[-3.2670423E-3,-7.3075406E-2,3.626088E-2,1.9348457E-2,-1.0890141E-1,4.2940184E-2,-1.3382051E-2,-5.1648073E-2,-5.0014585E-2,5.633533E-3,5.130646E-2,-2.2577805E-2,-3.5404086E-3,-5.9919455E-3,6.4990106E-3,3.884039E-2,2.3576278E-2,-6.089413E-3,1.4397363E-2,-2.9055774E-4,-3.4789445E-3,1.74925E-2,4.7356535E-2,7.5100065E-4,5.7278126E-3,-3.0077103E-4,2.7682187E-4,7.9612737E-4,6.40591E-3,1.5498455E-2,5.812119E-3],"categories":[],"categories_nodes":[],"categories_segments":[],"categories_sizes":[],"default_left":[0,0,0,0,0,0,0,0,0,0,0,0,0,0,0,0,0,0,0,0,0,0,0,0,0,0,0,0,0,0,0],"id":4,"left_children":[1,3,5,-1,7,9,-1,11,-1,13,15,-1,17,19,-1,21,-1,-1,23,25,-1,27,29,-1,-1,-1,-1,-1,-1,-1,-1],"loss_changes":[1.9856572E-1,1.35167E-1,2.6761863E-2,0E0,6.090027E-2,1.3132028E-2,0E0,1.3364155E-2,0E0,1.8069962E-3,8.8507235E-3,0E0,1.7952116E-3,1.8835232E-4,0E0,3.8984604E-3,0E0,0E0,1.19744276E-4,4.380641E-6,0E0,4.589029E-4,1.1675023E-3,0E0,0E0,0E0,0E0,0E0,0E0,0E0,0E0],"parents":[2147483647,0,0,1,1,2,2,4,4,5,5,7,7,9,9,10,10,12,12,13,13,15,15,18,18,19,19,21,21,22,22],"right_children":[2,4,6,-1,8,10,-1,12,-1,14,16,-1,18,20,-1,22,-1,-1,24,26,-1,28,30,-1,-1,-1,-1,-1,-1,-1,-1],"split_conditions":[-2.486175E-3,-3.836617E-4,5.6486733E-2,1.9348457E-2,8.807575E-3,-5.0198595E-4,-1.3382051E-2,2.1933772E-2,-5.0014585E-2,2.7492503E-2,4.89648E-2,-2.2577805E-2,2.8499063E-2,3.6011736E-3,6.4990106E-3,-3.4306291E-4,2.3576278E-2,-6.089413E-3,-2.2591969E-2,1.0695521E-2,-3.4789445E-3,4.7605745E-3,3.087263E-2,7.5100065E-4,5.7278126E-3,-3.0077103E-4,2.7682187E-4,7.9612737E-4,6.40591E-3,1.5498455E-2,5.812119E-3],"split_indices":[209,2362,1584,0,38,2857,0,1615,0,84,1974,0,772,3,0,3066,0,0,0,0,0,1547,2214,0,0,0,0,0,0,0,0],"split_type":[0,0,0,0,0,0,0,0,0,0,0,0,0,0,0,0,0,0,0,0,0,0,0,0,0,0,0,0,0,0,0],"sum_hessian":[7E1,2.5E1,4.5E1,5E0,2E1,4.2E1,3E0,1.1E1,9E0,8E0,3.4E1,7E0,4E0,5E0,3E0,2.5E1,9E0,2E0,2E0,3E0,2E0,8E0,1.7E1,1E0,1E0,2E0,1E0,2E0,6E0,1.4E1,3E0],"tree_param":{"num_deleted":"0","num_feature":"3088","num_nodes":"31","size_leaf_vector":"1"}},{"base_weights":[-2.4439902E-3,-5.3185653E-2,2.628921E-2,2.5319265E-2,-8.948335E-2,3.133918E-2,-3.4570277E-2,-1.086697E-2,4.5223545E-2,-3.865712E-2,-3.7883587E-2,4.4626106E-2,1.6627748E-2,-1.1765797E-2,-3.0934722E-3,6.383479E-4,-4.7723535E-3,8.096205E-3,2.0460678E-2,-4.990717E-2,7.7014896E-3,1.893913E-2,5.5350754E-2,2.6244769E-2,2.462846E-3,-1.5973454E-2,-3.9815158E-3,6.963813E-3,4.0789247E-3,3.4022036E-3,1.7305285E-2,4.5464905E-3,9.384457E-3,1.1204803E-2,-5.2325926E-3,2.3530127E-4,1.6002149E-3,1.8889323E-3,4.6257377E-3,-2.7831555E-3,-2.6730003E-4],"categories":[],"categories_nodes":[],"categories_segments":[],"categories_sizes":[],"default_left":[0,0,0,0,0,0,0,0,0,0,0,0,0,0,0,0,0,0,0,0,0,0,0,0,0,0,0,0,0,0,0,0,0,0,0,0,0,0,0,0,0],"id":5,"left_children":[1,3,5,7,9,11,13,15,17,19,-1,21,23,-1,-1,-1,-1,-1,-1,25,-1,27,29,31,33,-1,-1,-1,35,-1,-1,-1,-1,37,39,-1,-1,-1,-1,-1,-1],"loss_changes":[1.04914114E-1,7.635389E-2,1.5220981E-2,6.9737905E-3,2.87814E-2,7.6631643E-3,4.670676E-5,2.9586966E-4,6.7366846E-4,7.7945115E-3,0E0,5.0123446E-3,2.9322952E-3,0E0,0E0,0E0,0E0,0E0,0E0,2.7156807E-4,0E0,4.1336752E-4,8.8630244E-4,2.5206525E-4,7.313621E-4,0E0,0E0,0E0,8.2216575E-6,0E0,0E0,0E0,0E0,6.341492E-6,9.7093856E-5,0E0,0E0,0E0,0E0,0E0,0E0],"parents":[2147483647,0,0,1,1,2,2,3,3,4,4,5,5,6,6,7,7,8,8,9,9,11,11,12,12,19,19,21,21,22,22,23,23,24,24,28,28,33,33,34,34],"right_children":[2,4,6,8,10,12,14,16,18,20,-1,22,24,-1,-1,-1,-1,-1,-1,26,-1,28,30,32,34,-1,-1,-1,36,-1,-1,-1,-1,38,40,-1,-1,-1,-1,-1,-1],"split_conditions":[-2.486175E-3,1.9836847E-2,5.6486733E-2,-9.2066533E-4,4.073803E-2,1.1099731E-4,-1.1908577E-3,-2.2591969E-2,6.7613654E-2,3.6337443E-2,-3.7883587E-2,1.9063864E-2,2.9296588E-2,-1.1765797E-2,-3.0934722E-3,6.383479E-4,-4.7723535E-3,8.096205E-3,2.0460678E-2,7.136199E-3,7.7014896E-3,2.5468636E-2,8.0612116E-4,1.3335634E-2,3.4427788E-2,-1.5973454E-2,-3.9815158E-3,6.963813E-3,1.1950713E-2,3.4022036E-3,1.7305285E-2,4.5464905E-3,9.384457E-3,2.8499063E-2,7.7168983E-3,2.3530127E-4,1.6002149E-3,1.8889323E-3,4.6257377E-3,-2.7831555E-3,-2.6730003E-4],"split_indices":[209,2219,1584,2,2039,2595,0,0,1544,1544,0,1875,1845,0,0,0,0,0,0,3,0,5,1551,1671,1805,0,0,0,0,0,0,0,0,772,2,0,0,0,0,0,0],"split_type":[0,0,0,0,0,0,0,0,0,0,0,0,0,0,0,0,0,0,0,0,0,0,0,0,0,0,0,0,0,0,0,0,0,0,0,0,0,0,0,0,0],"sum_hessian":[7E1,2.5E1,4.5E1,8E0,1.7E1,4.2E1,3E0,3E0,5E0,8E0,9E0,2.1E1,2.1E1,2E0,1E0,1E0,2E0,4E0,1E0,7E0,1E0,7E0,1.4E1,1.2E1,9E0,6E0,1E0,5E0,2E0,1E0,1.3E1,5E0,7E0,4E0,5E0,1E0,1E0,3E0,1E0,2E0,3E0],"tree_param":{"num_deleted":"0","num_feature":"3088","num_nodes":"41","size_leaf_vector":"1"}},{"base_weights":[-1.621656E-3,-5.752223E-2,1.3117472E-2,-3.3175897E-2,-1.9931555E-2,-1.7259404E-2,1.81078E-2,5.880252E-3,-1.1902239E-2,-1.3781707E-2,2.3953404E-2,-2.5896082E-2,7.835284E-3,5.2292805E-2,1.6611088E-2,-1.7014594E-3,-8.642007E-3,1.7095407E-3,3.931877E-3,8.942836E-3,1.929528E-2,2.142234E-2,-7.756216E-3,-7.638932E-5,8.4568263E-4,1.54378E-3,7.4941544E-3,-3.9978363E-3,1.2337089E-3],"categories":[],"categories_nodes":[],"categories_segments":[],"categories_sizes":[],"default_left":[0,0,0,0,0,0,0,0,0,0,0,0,0,0,0,0,0,0,0,0,0,0,0,0,0,0,0,0,0],"id":6,"left_children":[1,3,5,-1,7,-1,9,-1,-1,11,13,15,17,19,21,-1,-1,23,-1,-1,-1,25,27,-1,-1,-1,-1,-1,-1],"loss_changes":[5.925327E-2,2.7716566E-2,2.1137735E-2,0E0,8.582358E-3,0E0,1.0396441E-2,0E0,0E0,2.5597904E-3,8.702893E-3,1.8981565E-4,1.06748834E-4,5.1594526E-4,4.6211705E-3,0E0,0E0,7.2549547E-6,0E0,0E0,0E0,1.7247098E-3,5.1754975E-4,0E0,0E0,0E0,0E0,0E0,0E0],"parents":[2147483647,0,0,1,1,2,2,4,4,6,6,9,9,10,10,11,11,12,12,13,13,14,14,17,17,21,21,22,22],"right_children":[2,4,6,-1,8,-1,10,-1,-1,12,14,16,18,20,22,-1,-1,24,-1,-1,-1,26,28,-1,-1,-1,-1,-1,-1],"split_conditions":[1.013884E-2,1.7754447E-2,-2.1708629E-4,-3.3175897E-2,-1.9711953E-2,-1.7259404E-2,-8.045282E-4,5.880252E-3,-1.1902239E-2,-4.3843207E-3,-1.220524E-2,3.0988127E-2,2.8499063E-2,1.4851764E-2,1.5209783E-2,-1.7014594E-3,-8.642007E-3,-5.0256364E-3,3.931877E-3,8.942836E-3,1.929528E-2,-8.710639E-4,2.4556983E-2,-7.638932E-5,8.4568263E-4,1.54378E-3,7.4941544E-3,-3.9978363E-3,1.2337089E-3],"split_indices":[2209,1881,3078,0,7,0,2409,0,0,19,75,1548,772,1656,110,0,0,0,0,0,0,3066,1544,0,0,0,0,0,0],"split_type":[0,0,0,0,0,0,0,0,0,0,0,0,0,0,0,0,0,0,0,0,0,0,0,0,0,0,0,0,0],"sum_hessian":[7E1,1.4E1,5.6E1,5E0,9E0,3E0,5.3E1,3E0,6E0,8E0,4.5E1,5E0,3E0,8E0,3.7E1,1E0,4E0,2E0,1E0,4E0,4E0,3.1E1,6E0,1E0,1E0,6E0,2.5E1,4E0,2E0],"tree_param":{"num_deleted":"0","num_feature":"3088","num_nodes":"29","size_leaf_vector":"1"}},{"base_weights":[-1.5237111E-3,-3.2636732E-2,3.1620844E-3,-4.7901772E-2,8.785655E-3,-3.7891143E-3,-1.5502583E-2,1.45185115E-2,-2.7224654E-2,2.6921974E-3,2.4284033E-2,-3.6664635E-3,-9.806786E-3,7.4484814E-3,-7.5988458E-3,4.1732226E-2,1.6042316E-2,-3.592372E-5,4.714685E-3,3.342095E-3,1.3249103E-2,2.0034672E-3,7.43979E-3],"categories":[],"categories_nodes":[],"categories_segments":[],"categories_sizes":[],"default_left":[0,0,0,0,0,0,0,0,0,0,0,0,0,0,0,0,0,0,0,0,0,0,0],"id":7,"left_children":[1,-1,3,5,7,-1,-1,9,11,13,15,-1,-1,17,-1,19,21,-1,-1,-1,-1,-1,-1],"loss_changes":[3.603028E-2,0E0,2.0234969E-2,2.7899817E-4,1.3401104E-2,0E0,0E0,6.286579E-3,3.3836393E-4,3.6539221E-3,3.6446098E-3,0E0,0E0,1.4409357E-3,0E0,1.7744675E-4,1.6384111E-3,0E0,0E0,0E0,0E0,0E0,0E0],"parents":[2147483647,0,0,2,2,3,3,4,4,7,7,8,8,9,9,10,10,13,13,15,15,16,16],"right_children":[2,-1,4,6,8,-1,-1,10,12,14,16,-1,-1,18,-1,20,22,-1,-1,-1,-1,-1,-1],"split_conditions":[-1.7039338E-4,-3.2636732E-2,-2.1708629E-4,1.0585394E-3,6.352762E-2,-3.7891143E-3,-1.5502583E-2,6.4314035E-4,8.242879E-3,-5.116483E-4,1.3318331E-3,-3.6664635E-3,-9.806786E-3,4.001498E-2,-7.5988458E-3,-1.6877107E-2,4.142581E-6,-3.592372E-5,4.714685E-3,3.342095E-3,1.3249103E-2,2.0034672E-3,7.43979E-3],"split_indices":[2589,0,3078,1551,299,0,0,2751,1558,2614,2418,0,0,1921,0,3,2903,0,0,0,0,0,0],"split_type":[0,0,0,0,0,0,0,0,0,0,0,0,0,0,0,0,0,0,0,0,0,0,0],"sum_hessian":[7E1,2E0,6.8E1,6E0,6.2E1,1E0,5E0,5.4E1,8E0,2.5E1,2.9E1,3E0,5E0,2.2E1,3E0,8E0,2.1E1,1.2E1,1E1,1E0,7E0,1.1E1,1E1],"tree_param":{"num_deleted":"0","num_feature":"3088","num_nodes":"23","size_leaf_vector":"1"}},{"base_weights":[-1.6621929E-3,-2.6109386E-2,2.0735965E-3,-2.3720466E-2,8.4850835E-3,6.141195E-3,-2.8694447E-2,1.4836614E-2,-8.321031E-3,-4.342367E-3,-1.0731769E-2,1.0139172E-2,1.0620586E-2,-1.7844198E-2,1.0524948E-2,1.7400363E-2,5.2721445E-3,-9.9844225E-3,-8.730811E-3,7.5830525E-4,3.4856596E-3,2.7655424E-3,6.170839E-3,3.6111476E-3,7.2172657E-4,-1.2768686E-3,-3.355335E-3],"categories":[],"categories_nodes":[],"categories_segments":[],"categories_sizes":[],"default_left":[0,0,0,0,0,0,0,0,0,0,0,0,0,0,0,0,0,0,0,0,0,0,0,0,0,0,0],"id":8,"left_children":[1,-1,3,5,7,-1,9,11,13,-1,-1,-1,15,17,19,21,23,25,-1,-1,-1,-1,-1,-1,-1,-1,-1],"loss_changes":[2.2823853E-2,0E0,1.1612372E-2,3.664676E-3,6.101151E-3,0E0,7.906584E-4,2.918533E-3,3.059384E-3,0E0,0E0,0E0,1.1774059E-3,6.828087E-4,2.3121247E-5,1.9931886E-4,3.7825597E-4,7.3882984E-6,0E0,0E0,0E0,0E0,0E0,0E0,0E0,0E0,0E0],"parents":[2147483647,0,0,2,2,3,3,4,4,6,6,7,7,8,8,12,12,13,13,14,14,15,15,16,16,17,17],"right_children":[2,-1,4,6,8,-1,10,12,14,-1,-1,-1,16,18,20,22,24,26,-1,-1,-1,-1,-1,-1,-1,-1,-1],"split_conditions":[-1.7039338E-4,-2.6109386E-2,3.0290045E-2,1.6977392E-2,3.3211667E-2,6.141195E-3,2.779007E-2,-2.040669E-4,4.441069E-2,-4.342367E-3,-1.0731769E-2,1.0139172E-2,3.2425772E-2,7.7168983E-3,3.9241333E-2,1.8573739E-5,6.030781E-3,9.558685E-3,-8.730811E-3,7.5830525E-4,3.4856596E-3,2.7655424E-3,6.170839E-3,3.6111476E-3,7.2172657E-4,-1.2768686E-3,-3.355335E-3],"split_indices":[2589,0,187,1545,256,0,2148,2900,1704,0,0,0,1621,2,1,3060,2075,1567,0,0,0,0,0,0,0,0,0],"split_type":[0,0,0,0,0,0,0,0,0,0,0,0,0,0,0,0,0,0,0,0,0,0,0,0,0,0,0],"sum_hessian":[7E1,2E0,6.8E1,1.3E1,5.5E1,1E0,1.2E1,4E1,1.5E1,5E0,7E0,6E0,3.4E1,1E1,5E0,1.4E1,2E1,7E0,3E0,1E0,4E0,5E0,9E0,5E0,1.5E1,2E0,5E0],"tree_param":{"num_deleted":"0","num_feature":"3088","num_nodes":"27","size_leaf_vector":"1"}},{"base_weights":[-1.4558363E-3,-2.0887509E-2,1.5291405E-3,-2.8573008E-2,4.8495517E-3,-2.5693933E-3,-9.144089E-3,7.974132E-3,-1.4783945E-2,1.0806043E-2,6.2361667E-3,-2.0125331E-3,-5.311087E-3,8.210878E-3,-1.0600884E-2,1.4907001E-3,4.5035235E-3,-1.0894538E-3,-3.953308E-3],"categories":[],"categories_nodes":[],"categories_segments":[],"categories_sizes":[],"default_left":[0,0,0,0,0,0,0,0,0,0,0,0,0,0,0,0,0,0,0],"id":9,"left_children":[1,-1,3,5,7,-1,-1,9,11,-1,13,-1,-1,15,17,-1,-1,-1,-1],"loss_changes":[1.4553792E-2,0E0,7.035221E-3,6.078277E-6,3.982715E-3,0E0,0E0,2.4562369E-3,9.343703E-5,0E0,1.8492031E-3,0E0,0E0,9.836904E-4,5.989737E-5,0E0,0E0,0E0,0E0],"parents":[2147483647,0,0,2,2,3,3,4,4,7,7,8,8,10,10,13,13,14,14],"right_children":[2,-1,4,6,8,-1,-1,10,12,-1,14,-1,-1,16,18,-1,-1,-1,-1],"split_conditions":[-1.7039338E-4,-2.0887509E-2,-2.1708629E-4,1.0585394E-3,6.352762E-2,-2.5693933E-3,-9.144089E-3,9.600246E-3,8.242879E-3,1.0806043E-2,6.4067595E-2,-2.0125331E-3,-5.311087E-3,2.7223123E-2,3.0988127E-2,1.4907001E-3,4.5035235E-3,-1.0894538E-3,-3.953308E-3],"split_indices":[2589,0,3078,1551,299,0,0,1700,1558,0,1981,0,0,1715,1548,0,0,0,0],"split_type":[0,0,0,0,0,0,0,0,0,0,0,0,0,0,0,0,0,0,0],"sum_hessian":[7E1,2E0,6.8E1,6E0,6.2E1,1E0,5E0,5.4E1,8E0,2E0,5.2E1,3E0,5E0,4.7E1,5E0,3.3E1,1.4E1,2E0,3E0],"tree_param":{"num_deleted":"0","num_feature":"3088","num_nodes":"19","size_leaf_vector":"1"}},{"base_weights":[-1.4158145E-3,-1.6710006E-2,9.648873E-4,-1.2562251E-2,5.285575E-3,-5.386857E-3,-7.445799E-3,1.8633801E-2,2.1317608E-3,9.5756206E-4,-8.601086E-3,7.1722693E-3,8.578527E-3,5.2802763E-3,-7.793811E-3,-2.739091E-3,-6.551028E-4,2.8835088E-3,6.6687766E-4,-4.992341E-3,7.223567E-3,5.134344E-4,-1.0973208E-2,-2.447831E-3,2.683699E-4,2.7999678E-3,1.5571789E-4,-6.687641E-4,1.3112068E-3,-4.3990263E-3,-1.7479189E-3],"categories":[],"categories_nodes":[],"categories_segments":[],"categories_sizes":[],"default_left":[0,0,0,0,0,0,0,0,0,0,0,0,0,0,0,0,0,0,0,0,0,0,0,0,0,0,0,0,0,0,0],"id":10,"left_children":[1,-1,3,5,7,9,-1,11,13,-1,15,-1,17,19,21,-1,-1,-1,-1,23,25,27,29,-1,-1,-1,-1,-1,-1,-1,-1],"loss_changes":[9.229395E-3,0E0,4.09921E-3,1.3614411E-3,2.191462E-3,3.5834167E-4,0E0,3.2519968E-4,1.4161895E-3,0E0,1.0628137E-5,0E0,1.1465949E-5,7.147937E-4,2.9616628E-4,0E0,0E0,0E0,0E0,1.1916553E-4,4.05338E-4,5.205957E-5,6.650778E-5,0E0,0E0,0E0,0E0,0E0,0E0,0E0,0E0],"parents":[2147483647,0,0,2,2,3,3,4,4,5,5,7,7,8,8,10,10,12,12,13,13,14,14,19,19,20,20,21,21,22,22],"right_children":[2,-1,4,6,8,10,-1,12,14,-1,16,-1,18,20,22,-1,-1,-1,-1,24,26,28,30,-1,-1,-1,-1,-1,-1,-1,-1],"split_conditions":[-1.7039338E-4,-1.6710006E-2,-5.6945633E-2,3.9284805E-5,1.5950069E-2,5.0925184E-3,-7.445799E-3,4.135988E-2,2.526284E-4,9.5756206E-4,4.125973E-2,7.1722693E-3,2.2584392E-2,2.7306797E-3,1.4080533E-2,-2.739091E-3,-6.551028E-4,2.8835088E-3,6.6687766E-4,-2.181672E-3,5.450179E-2,1.1950713E-2,2.3864418E-2,-2.447831E-3,2.683699E-4,2.7999678E-3,1.5571789E-4,-6.687641E-4,1.3112068E-3,-4.3990263E-3,-1.7479189E-3],"split_indices":[2589,0,168,2373,2042,1549,0,1632,2795,0,1551,0,0,2048,1674,0,0,0,0,2,2284,0,1549,0,0,0,0,0,0,0,0],"split_type":[0,0,0,0,0,0,0,0,0,0,0,0,0,0,0,0,0,0,0,0,0,0,0,0,0,0,0,0,0,0,0],"sum_hessian":[7E1,2E0,6.8E1,1.6E1,5.2E1,1.1E1,5E0,9E0,4.3E1,3E0,8E0,5E0,4E0,3.3E1,1E1,7E0,1E0,3E0,1E0,5E0,2.8E1,3E0,7E0,3E0,2E0,2.1E1,7E0,2E0,1E0,3E0,4E0],"tree_param":{"num_deleted":"0","num_feature":"3088","num_nodes":"31","size_leaf_vector":"1"}},{"base_weights":[-1.2811923E-3,-3.436725E-2,1.2070385E-3,-1.2969959E-2,1.64482E-4,-5.010888E-3,6.0841637E-3,-9.877357E-3,3.1119287E-3,3.475694E-3,1.941672E-2,-3.3205058E-3,-1.3425478E-2,-2.5454282E-3,6.2587857E-3,-5.832732E-4,6.4972104E-3,6.6058445E-3,9.604365E-4,-1.4935249E-3,3.3064486E-4,-4.441802E-3,-2.0888764E-3,-9.812504E-4,5.3429605E-5,7.2567613E-4,2.4236762E-3,-3.5005377E-3,3.2508203E-3,7.932039E-3,8.932829E-4,-3.9848688E-4,-1.3095841E-3,8.348823E-5,1.3152517E-3,2.7163122E-3,1.1629487E-3,4.405886E-4,-2.1121503E-4],"categories":[],"categories_nodes":[],"categories_segments":[],"categories_sizes":[],"default_left":[0,0,0,0,0,0,0,0,0,0,0,0,0,0,0,0,0,0,0,0,0,0,0,0,0,0,0,0,0,0,0,0,0,0,0,0,0,0,0],"id":11,"left_children":[1,3,5,-1,-1,7,9,11,13,15,17,19,21,23,25,27,29,-1,-1,-1,-1,-1,-1,-1,-1,-1,-1,31,33,35,37,-1,-1,-1,-1,-1,-1,-1,-1],"loss_changes":[5.88661E-3,1.5714997E-3,2.0623025E-3,0E0,0E0,1.2166207E-3,1.2540611E-3,3.9744598E-4,2.2956601E-4,4.0850946E-4,1.8273247E-4,6.414589E-5,3.9679E-6,1.0460852E-5,3.637033E-5,1.791556E-4,1.4568726E-4,0E0,0E0,0E0,0E0,0E0,0E0,0E0,0E0,0E0,0E0,1.1107557E-5,2.2362336E-5,3.3175922E-5,5.6290814E-6,0E0,0E0,0E0,0E0,0E0,0E0,0E0,0E0],"parents":[2147483647,0,0,1,1,2,2,5,5,6,6,7,7,8,8,9,9,10,10,11,11,12,12,13,13,14,14,15,15,16,16,27,27,28,28,29,29,30,30],"right_children":[2,4,6,-1,-1,8,10,12,14,16,18,20,22,24,26,28,30,-1,-1,-1,-1,-1,-1,-1,-1,-1,-1,32,34,36,38,-1,-1,-1,-1,-1,-1,-1,-1],"split_conditions":[-1.6200503E-4,-1.8738521E-2,1.4060158E-3,-1.2969959E-2,1.64482E-4,4.3537408E-2,2.7397138E-3,-1.527489E-4,-3.1226344E-2,-1.9702448E-4,1.18391424E-1,1.537229E-3,3.579318E-2,7.7168983E-3,8.6064E-3,2.3693249E-2,6.829887E-2,6.6058445E-3,9.604365E-4,-1.4935249E-3,3.3064486E-4,-4.441802E-3,-2.0888764E-3,-9.812504E-4,5.3429605E-5,7.2567613E-4,2.4236762E-3,8.994466E-3,-1.600085E-2,2.7523615E-4,3.4518796E-3,-3.9848688E-4,-1.3095841E-3,8.348823E-5,1.3152517E-3,2.7163122E-3,1.1629487E-3,4.405886E-4,-2.1121503E-4],"split_indices":[2589,0,2397,0,0,1644,2430,2797,38,2674,1545,5,1848,2,1567,2006,1577,0,0,0,0,0,0,0,0,0,0,1549,4,2753,0,0,0,0,0,0,0,0,0],"split_type":[0,0,0,0,0,0,0,0,0,0,0,0,0,0,0,0,0,0,0,0,0,0,0,0,0,0,0,0,0,0,0,0,0,0,0,0,0,0,0],"sum_hessian":[7E1,4E0,6.6E1,3E0,1E0,2.9E1,3.7E1,1.8E1,1.1E1,3.2E1,5E0,7E0,1.1E1,4E0,7E0,1.4E1,1.8E1,4E0,1E0,5E0,2E0,8E0,3E0,3E0,1E0,3E0,4E0,8E0,6E0,1.4E1,4E0,3E0,5E0,2E0,4E0,1E1,4E0,3E0,1E0],"tree_param":{"num_deleted":"0","num_feature":"3088","num_nodes":"39","size_leaf_vector":"1"}},{"base_weights":[-9.94185E-4,-1.07740145E-2,5.384494E-4,-1.28182005E-2,2.0139748E-3,-1.6931468E-3,-5.0364085E-3,6.3264375E-3,1.0428858E-3,-2.3287565E-3,3.9742417E-3,-4.243634E-4,-2.1824231E-3,-2.3268282E-3,4.9235905E-3,3.5920704E-4,-1.2211587E-3,-8.792282E-5,-1.0754913E-3,5.308852E-4,2.025812E-3],"categories":[],"categories_nodes":[],"categories_segments":[],"categories_sizes":[],"default_left":[0,0,0,0,0,0,0,0,0,0,0,0,0,0,0,0,0,0,0,0,0],"id":12,"left_children":[1,-1,3,5,7,-1,-1,-1,9,11,13,15,-1,17,19,-1,-1,-1,-1,-1,-1],"loss_changes":[3.819141E-3,0E0,1.3856728E-3,1.0461861E-4,1.1449372E-3,0E0,0E0,0E0,6.1214756E-4,2.7006684E-4,2.0885945E-4,1.3496118E-4,0E0,1.1743086E-5,1.5535072E-4,0E0,0E0,0E0,0E0,0E0,0E0],"parents":[2147483647,0,0,2,2,3,3,4,4,8,8,9,9,10,10,11,11,13,13,14,14],"right_children":[2,-1,4,6,8,-1,-1,-1,10,12,14,16,-1,18,20,-1,-1,-1,-1,-1,-1],"split_conditions":[-1.7039338E-4,-1.07740145E-2,-2.1708629E-4,-1.8527085E-2,9.600246E-3,-1.6931468E-3,-5.0364085E-3,6.3264375E-3,-8.146765E-3,5.543852E-5,3.5736505E-3,8.443187E-9,-2.1824231E-3,5.1775537E-2,3.8062144E-2,3.5920704E-4,-1.2211587E-3,-8.792282E-5,-1.0754913E-3,5.308852E-4,2.025812E-3],"split_indices":[2589,0,3078,773,1700,0,0,0,655,2822,1818,2372,0,1,2224,0,0,0,0,0,0],"split_type":[0,0,0,0,0,0,0,0,0,0,0,0,0,0,0,0,0,0,0,0,0],"sum_hessian":[7E1,2E0,6.8E1,6E0,6.2E1,3E0,3E0,2E0,6E1,2.8E1,3.2E1,2.1E1,7E0,4E0,2.8E1,1.5E1,6E0,2E0,2E0,1.1E1,1.7E1],"tree_param":{"num_deleted":"0","num_feature":"3088","num_nodes":"21","size_leaf_vector":"1"}},{"base_weights":[-8.7659573E-4,-8.619212E-3,3.4715666E-4,6.352455E-3,-2.7052773E-4,-9.934104E-3,8.2488457E-4,-1.3121893E-3,-3.9032155E-3,1.9527206E-3,-4.037159E-3,2.9043008E-3,-2.2391886E-3,-6.0591316E-3,-1.0053316E-3,1.1060025E-3,-4.6027094E-4,-9.2700165E-4,2.3281576E-4,-2.0663613E-3,-7.9745654E-4,-5.734742E-4,1.6143323E-4],"categories":[],"categories_nodes":[],"categories_segments":[],"categories_sizes":[],"default_left":[0,0,0,0,0,0,0,0,0,0,0,0,0,0,0,0,0,0,0,0,0,0,0],"id":13,"left_children":[1,-1,3,-1,5,7,9,-1,-1,11,13,15,17,19,21,-1,-1,-1,-1,-1,-1,-1,-1],"loss_changes":[2.430118E-3,0E0,8.9340925E-4,0E0,7.2801526E-4,6.283645E-5,3.4786592E-4,0E0,0E0,2.099391E-4,6.747182E-5,1.5150529E-4,2.8052182E-5,1.4202378E-6,9.421101E-6,0E0,0E0,0E0,0E0,0E0,0E0,0E0,0E0],"parents":[2147483647,0,0,2,2,4,4,5,5,6,6,9,9,10,10,11,11,12,12,13,13,14,14],"right_children":[2,-1,4,-1,6,8,10,-1,-1,12,14,16,18,20,22,-1,-1,-1,-1,-1,-1,-1,-1],"split_conditions":[-1.7039338E-4,-8.619212E-3,6.934088E-4,6.352455E-3,-2.1708629E-4,-1.8527085E-2,2.2969565E-3,-1.3121893E-3,-3.9032155E-3,5.458644E-2,5.2187644E-2,1.021346E-3,1.4329424E-2,2.950291E-2,-9.2066533E-4,1.1060025E-3,-4.6027094E-4,-9.2700165E-4,2.3281576E-4,-2.0663613E-3,-7.9745654E-4,-5.734742E-4,1.6143323E-4],"split_indices":[2589,0,1558,0,3078,773,3033,0,0,2061,2273,2707,2,1550,2,0,0,0,0,0,0,0,0],"split_type":[0,0,0,0,0,0,0,0,0,0,0,0,0,0,0,0,0,0,0,0,0,0,0],"sum_hessian":[7E1,2E0,6.8E1,1E0,6.7E1,6E0,6.1E1,3E0,3E0,5E1,1.1E1,4.1E1,9E0,6E0,5E0,3.5E1,6E0,7E0,2E0,4E0,2E0,3E0,2E0],"tree_param":{"num_deleted":"0","num_feature":"3088","num_nodes":"23","size_leaf_vector":"1"}},{"base_weights":[-7.6583E-4,-6.895369E-3,2.1130084E-4,5.399582E-3,-3.1496256E-4,-7.69893E-3,5.237912E-4,-1.0169451E-3,-3.0249932E-3,3.1409203E-3,-7.056594E-4,5.249848E-3,-1.9974179E-5,-2.6907679E-3,1.1375119E-3,1.6504104E-3,3.7246945E-4,3.368497E-4,-3.4763574E-4,-2.5370196E-4,-1.3907414E-3,1.0220844E-3,-1.694294E-4],"categories":[],"categories_nodes":[],"categories_segments":[],"categories_sizes":[],"default_left":[0,0,0,0,0,0,0,0,0,0,0,0,0,0,0,0,0,0,0,0,0,0,0],"id":14,"left_children":[1,-1,3,-1,5,7,9,-1,-1,11,13,15,17,19,21,-1,-1,-1,-1,-1,-1,-1,-1],"loss_changes":[1.5463098E-3,0E0,6.515646E-4,0E0,4.2517908E-4,3.774138E-5,2.0170955E-4,0E0,0E0,1.3342679E-4,1.6039328E-4,5.267648E-6,1.3014093E-5,7.144397E-5,9.0777896E-5,0E0,0E0,0E0,0E0,0E0,0E0,0E0,0E0],"parents":[2147483647,0,0,2,2,4,4,5,5,6,6,9,9,10,10,11,11,12,12,13,13,14,14],"right_children":[2,-1,4,-1,6,8,10,-1,-1,12,14,16,18,20,22,-1,-1,-1,-1,-1,-1,-1,-1],"split_conditions":[-1.7039338E-4,-6.895369E-3,6.934088E-4,5.399582E-3,-2.1708629E-4,-1.8527085E-2,1.9426968E-2,-1.0169451E-3,-3.0249932E-3,4.213016E-3,2.3693196E-3,2.926193E-2,3.8692895E-2,2.401794E-3,5.4609854E-2,1.6504104E-3,3.7246945E-4,3.368497E-4,-3.4763574E-4,-2.5370196E-4,-1.3907414E-3,1.0220844E-3,-1.694294E-4],"split_indices":[2589,0,1558,0,3078,773,2014,0,0,2482,2397,3,1552,2673,1869,0,0,0,0,0,0,0,0],"split_type":[0,0,0,0,0,0,0,0,0,0,0,0,0,0,0,0,0,0,0,0,0,0,0],"sum_hessian":[7E1,2E0,6.8E1,1E0,6.7E1,6E0,6.1E1,3E0,3E0,1.9E1,4.2E1,1.1E1,8E0,2E1,2.2E1,1E1,1E0,4E0,4E0,1.1E1,9E0,9E0,1.3E1],"tree_param":{"num_deleted":"0","num_feature":"3088","num_nodes":"23","size_leaf_vector":"1"}},{"base_weights":[-5.9688714E-4,-5.516295E-3,1.8527478E-4,4.5896443E-3,-2.619657E-4,-5.96667E-3,3.8633903E-4,-7.881325E-4,-2.3443692E-3,1.020092E-3,-2.339306E-3,4.192047E-3,4.2018903E-4,-6.949731E-4,-1.1603431E-3,1.343143E-3,3.2945574E-4,-6.030967E-4,3.048435E-4,-3.643906E-4,1.208365E-4],"categories":[],"categories_nodes":[],"categories_segments":[],"categories_sizes":[],"default_left":[0,0,0,0,0,0,0,0,0,0,0,0,0,0,0,0,0,0,0,0,0],"id":15,"left_children":[1,-1,3,-1,5,7,9,-1,-1,11,13,15,17,19,-1,-1,-1,-1,-1,-1,-1],"loss_changes":[9.9139E-4,0E0,4.7040542E-4,0E0,2.5379547E-4,2.2668391E-5,1.09484215E-4,0E0,0E0,9.528466E-5,2.7472408E-5,2.1396554E-6,6.5775785E-5,4.4824974E-6,0E0,0E0,0E0,0E0,0E0,0E0,0E0],"parents":[2147483647,0,0,2,2,4,4,5,5,6,6,9,9,10,10,11,11,12,12,13,13],"right_children":[2,-1,4,-1,6,8,10,-1,-1,12,14,16,18,20,-1,-1,-1,-1,-1,-1,-1],"split_conditions":[-1.7039338E-4,-5.516295E-3,6.934088E-4,4.5896443E-3,-2.1708629E-4,-1.8527085E-2,2.2969565E-3,-7.881325E-4,-2.3443692E-3,3.8767867E-3,2.214294E-2,5.109103E-2,-7.77582E-4,-9.2066533E-4,-1.1603431E-3,1.343143E-3,3.2945574E-4,-6.030967E-4,3.048435E-4,-3.643906E-4,1.208365E-4],"split_indices":[2589,0,1558,0,3078,773,3033,0,0,2028,2080,1544,2724,2,0,0,0,0,0,0,0],"split_type":[0,0,0,0,0,0,0,0,0,0,0,0,0,0,0,0,0,0,0,0,0],"sum_hessian":[7E1,2E0,6.8E1,1E0,6.7E1,6E0,6.1E1,3E0,3E0,5E1,1.1E1,7E0,4.3E1,6E0,5E0,6E0,1E0,8E0,3.5E1,4E0,2E0],"tree_param":{"num_deleted":"0","num_feature":"3088","num_nodes":"21","size_leaf_vector":"1"}},{"base_weights":[-4.7539675E-4,-4.4130357E-3,1.5039397E-4,3.9012015E-3,-2.298651E-4,3.190864E-4,-4.386887E-3,-7.155849E-4,1.564077E-3,-1.6684539E-3,-5.4656493E-4,5.094362E-4,-2.1255733E-3,2.258661E-3,-1.3591746E-3,-2.1276802E-4,5.031467E-4,-4.026191E-4,-9.6232374E-4,1.0675658E-3,3.5065028E-4,-5.6509377E-4,-1.8780828E-4],"categories":[],"categories_nodes":[],"categories_segments":[],"categories_sizes":[],"default_left":[0,0,0,0,0,0,0,0,0,0,0,0,0,0,0,0,0,0,0,0,0,0,0],"id":16,"left_children":[1,-1,3,-1,5,7,9,11,13,-1,-1,15,17,19,21,-1,-1,-1,-1,-1,-1,-1,-1],"loss_changes":[6.346772E-4,0E0,3.402406E-4,0E0,1.5657602E-4,7.969674E-5,1.3970945E-5,5.9809878E-5,5.992235E-5,0E0,0E0,2.8227554E-5,9.261275E-6,2.8423732E-5,1.1278726E-6,0E0,0E0,0E0,0E0,0E0,0E0,0E0,0E0],"parents":[2147483647,0,0,2,2,4,4,5,5,6,6,7,7,8,8,11,11,12,12,13,13,14,14],"right_children":[2,-1,4,-1,6,8,10,12,14,-1,-1,16,18,20,22,-1,-1,-1,-1,-1,-1,-1,-1],"split_conditions":[-1.7039338E-4,-4.4130357E-3,6.934088E-4,3.9012015E-3,2.0761503E-2,-6.6478875E-5,1.9702964E-2,-8.898798E-5,3.6844406E-2,-1.6684539E-3,-5.4656493E-4,1.2860119E-2,2.2552263E-2,-7.891152E-5,-3.2015964E-2,-2.1276802E-4,5.031467E-4,-4.026191E-4,-9.6232374E-4,1.0675658E-3,3.5065028E-4,-5.6509377E-4,-1.8780828E-4],"split_indices":[2589,0,1558,0,7,2446,779,2917,1667,0,0,2244,2267,2958,776,0,0,0,0,0,0,0,0],"split_type":[0,0,0,0,0,0,0,0,0,0,0,0,0,0,0,0,0,0,0,0,0,0,0],"sum_hessian":[7E1,2E0,6.8E1,1E0,6.7E1,6E1,7E0,3.3E1,2.7E1,4E0,3E0,1.8E1,1.5E1,2.2E1,5E0,9E0,9E0,1E1,5E0,9E0,1.3E1,2E0,3E0],"tree_param":{"num_deleted":"0","num_feature":"3088","num_nodes":"23","size_leaf_vector":"1"}},{"base_weights":[-3.7694335E-4,-3.530428E-3,1.2378697E-4,3.316024E-3,-1.9949302E-4,-3.7163582E-3,2.0079002E-4,-4.5664387E-4,-1.4944442E-3,-5.277234E-4,1.1647046E-3,-1.3553731E-3,4.7702473E-4,1.9349487E-3,-5.907781E-4,-1.8944145E-4,-6.5099355E-4,-1.2787482E-4,3.9818886E-4,1.9101899E-4,8.4636704E-4,-4.0568414E-4,8.666397E-5],"categories":[],"categories_nodes":[],"categories_segments":[],"categories_sizes":[],"default_left":[0,0,0,0,0,0,0,0,0,0,0,0,0,0,0,0,0,0,0,0,0,0,0],"id":17,"left_children":[1,-1,3,-1,5,7,9,-1,-1,11,13,15,17,19,21,-1,-1,-1,-1,-1,-1,-1,-1],"loss_changes":[4.0643325E-4,0E0,2.4600478E-4,0E0,9.647263E-5,1.1849086E-5,4.4152574E-5,0E0,0E0,3.058341E-5,3.7651178E-5,1.0423599E-5,1.3622237E-5,2.006464E-5,6.419401E-6,0E0,0E0,0E0,0E0,0E0,0E0,0E0,0E0],"parents":[2147483647,0,0,2,2,4,4,5,5,6,6,9,9,10,10,11,11,12,12,13,13,14,14],"right_children":[2,-1,4,-1,6,8,10,-1,-1,12,14,16,18,20,22,-1,-1,-1,-1,-1,-1,-1,-1],"split_conditions":[-1.7039338E-4,-3.530428E-3,6.934088E-4,3.316024E-3,-2.1708629E-4,-1.8527085E-2,1.2576203E-4,-4.5664387E-4,-1.4944442E-3,3.318592E-2,2.520155E-4,2.2498569E-2,2.516841E-2,2.7044976E-2,1.46884695E-2,-1.8944145E-4,-6.5099355E-4,-1.2787482E-4,3.9818886E-4,1.9101899E-4,8.4636704E-4,-4.0568414E-4,8.666397E-5],"split_indices":[2589,0,1558,0,3078,773,2583,0,0,1787,2979,1597,2228,1923,20,0,0,0,0,0,0,0,0],"split_type":[0,0,0,0,0,0,0,0,0,0,0,0,0,0,0,0,0,0,0,0,0,0,0],"sum_hessian":[7E1,2E0,6.8E1,1E0,6.7E1,6E0,6.1E1,3E0,3E0,3.5E1,2.6E1,1.9E1,1.6E1,1.8E1,8E0,1.1E1,8E0,8E0,8E0,8E0,1E1,4E0,4E0],"tree_param":{"num_deleted":"0","num_feature":"3088","num_nodes":"23","size_leaf_vector":"1"}},{"base_weights":[-2.9228494E-4,-7.390167E-3,2.4177023E-4,-2.779073E-3,1.5521051E-5,2.8186173E-3,-3.9275397E-5,-1.584413E-3,3.334295E-4,-7.27081E-4,-2.0142396E-4,-7.4208993E-4,7.6611876E-4,-2.1724106E-4,7.229001E-5,-1.9943342E-5,-3.780539E-4,3.3637448E-4,2.1612246E-3,6.7682867E-4,1.50345795E-5,1.3848544E-4,7.742644E-4],"categories":[],"categories_nodes":[],"categories_segments":[],"categories_sizes":[],"default_left":[0,0,0,0,0,0,0,0,0,0,0,0,0,0,0,0,0,0,0,0,0,0,0],"id":18,"left_children":[1,3,5,-1,-1,-1,7,9,11,-1,13,15,17,-1,-1,-1,-1,19,21,-1,-1,-1,-1],"loss_changes":[2.7092363E-4,7.018796E-5,1.727322E-4,0E0,0E0,0E0,3.8536393E-5,1.4599504E-5,2.5698278E-5,0E0,1.5619526E-6,5.5166693E-6,2.2655031E-5,0E0,0E0,0E0,0E0,1.692261E-5,5.2278774E-6,0E0,0E0,0E0,0E0],"parents":[2147483647,0,0,1,1,2,2,6,6,7,7,8,8,10,10,11,11,12,12,17,17,18,18],"right_children":[2,4,6,-1,-1,-1,8,10,12,-1,14,16,18,-1,-1,-1,-1,20,22,-1,-1,-1,-1],"split_conditions":[-1.6200503E-4,-1.8738521E-2,6.934088E-4,-2.779073E-3,1.5521051E-5,2.8186173E-3,1.598172E-2,4.0938184E-2,1.3246991E-2,-7.27081E-4,8.515569E-3,2.1397278E-2,4.3268763E-2,-2.1724106E-4,7.229001E-5,-1.9943342E-5,-3.780539E-4,9.383762E-3,5.6353845E-3,6.7682867E-4,1.50345795E-5,1.3848544E-4,7.742644E-4],"split_indices":[2589,0,1558,0,0,0,1725,1632,1658,0,3,1698,2070,0,0,0,0,1709,1570,0,0,0,0],"split_type":[0,0,0,0,0,0,0,0,0,0,0,0,0,0,0,0,0,0,0,0,0,0,0],"sum_hessian":[7E1,4E0,6.6E1,3E0,1E0,1E0,6.5E1,1.2E1,5.3E1,7E0,5E0,1.5E1,3.8E1,2E0,3E0,7E0,8E0,3E1,8E0,3E0,2.7E1,2E0,6E0],"tree_param":{"num_deleted":"0","num_feature":"3088","num_nodes":"23","size_leaf_vector":"1"}},{"base_weights":[-1.991022E-4,-2.2685276E-3,1.2389883E-4,2.3958208E-3,-1.091635E-4,-1.0886692E-3,3.8296243E-4,-5.182992E-4,-2.318329E-3,-9.486079E-4,6.064132E-4,1.4726043E-4,-2.5997142E-4,-2.4336726E-4,-8.276779E-4,-3.364116E-4,1.3196469E-5,1.2051548E-3,-5.2586198E-5,6.902814E-5,5.362479E-4,1.774856E-4,-1.1127975E-4],"categories":[],"categories_nodes":[],"categories_segments":[],"categories_sizes":[],"default_left":[0,0,0,0,0,0,0,0,0,0,0,0,0,0,0,0,0,0,0,0,0,0,0],"id":19,"left_children":[1,-1,3,-1,5,7,9,11,13,15,17,-1,-1,-1,-1,-1,-1,19,21,-1,-1,-1,-1],"loss_changes":[1.6978526E-4,0E0,1.273057E-4,0E0,3.3195647E-5,1.49297175E-5,1.4262107E-5,6.4002743E-6,2.4100773E-6,1.2497221E-6,1.584619E-5,0E0,0E0,0E0,0E0,0E0,0E0,1.1512824E-5,4.321055E-6,0E0,0E0,0E0,0E0],"parents":[2147483647,0,0,2,2,4,4,5,5,6,6,7,7,8,8,9,9,10,10,17,17,18,18],"right_children":[2,-1,4,-1,6,8,10,12,14,16,18,-1,-1,-1,-1,-1,-1,20,22,-1,-1,-1,-1],"split_conditions":[-1.7039338E-4,-2.2685276E-3,6.934088E-4,2.3958208E-3,-2.486175E-3,2.4331316E-2,1.3745075E-2,8.304527E-3,1.1192144E-2,5.834471E-2,9.138424E-5,1.4726043E-4,-2.5997142E-4,-2.4336726E-4,-8.276779E-4,-3.364116E-4,1.3196469E-5,8.1957836E-4,1.3281742E-2,6.902814E-5,5.362479E-4,1.774856E-4,-1.1127975E-4],"split_indices":[2589,0,1558,0,209,1710,1736,1631,772,1,3046,0,0,0,0,0,0,2751,1832,0,0,0,0],"split_type":[0,0,0,0,0,0,0,0,0,0,0,0,0,0,0,0,0,0,0,0,0,0,0],"sum_hessian":[7E1,2E0,6.8E1,1E0,6.7E1,2.2E1,4.5E1,1.6E1,6E0,6E0,3.9E1,4E0,1.2E1,2E0,4E0,5E0,1E0,2E1,1.9E1,8E0,1.2E1,6E0,1.3E1],"tree_param":{"num_deleted":"0","num_feature":"3088","num_nodes":"23","size_leaf_vector":"1"}},{"base_weights":[-1.4934865E-4,-4.6555097E-3,1.8916112E-4,-1.7514265E-3,1.1220574E-5,2.0364495E-3,-1.367475E-5,-2.0540178E-4,1.0805369E-3,-3.421869E-4,3.8568024E-4,4.1708574E-4,-3.169179E-5,8.02909E-5,-7.2226673E-4,-6.75875E-5,1.3667347E-4,-3.800284E-5,-3.1383388E-4],"categories":[],"categories_nodes":[],"categories_segments":[],"categories_sizes":[],"default_left":[0,0,0,0,0,0,0,0,0,0,0,0,0,0,0,0,0,0,0],"id":20,"left_children":[1,3,5,-1,-1,-1,7,9,11,13,-1,-1,-1,15,17,-1,-1,-1,-1],"loss_changes":[1.0918259E-4,2.7967035E-5,8.97733E-5,0E0,0E0,0E0,1.4068081E-5,1.206489E-5,3.8210355E-6,8.568482E-6,0E0,0E0,0E0,3.08435E-6,5.2681144E-6,0E0,0E0,0E0,0E0],"parents":[2147483647,0,0,1,1,2,2,6,6,7,7,8,8,9,9,13,13,14,14],"right_children":[2,4,6,-1,-1,-1,8,10,12,14,-1,-1,-1,16,18,-1,-1,-1,-1],"split_conditions":[-1.6200503E-4,-1.8738521E-2,6.934088E-4,-1.7514265E-3,1.1220574E-5,2.0364495E-3,5.8425505E-2,7.1882294E-4,4.5021683E-2,1.15189825E-4,3.8568024E-4,4.1708574E-4,-3.169179E-5,3.6343632E-4,1.5537361E-2,-6.75875E-5,1.3667347E-4,-3.800284E-5,-3.1383388E-4],"split_indices":[2589,0,1558,0,0,0,1660,2827,772,2926,0,0,0,3064,2111,0,0,0,0],"split_type":[0,0,0,0,0,0,0,0,0,0,0,0,0,0,0,0,0,0,0],"sum_hessian":[7E1,4E0,6.6E1,3E0,1E0,1E0,6.5E1,5.6E1,9E0,5.2E1,4E0,7E0,2E0,2.5E1,2.7E1,1.4E1,1.1E1,1E1,1.7E1],"tree_param":{"num_deleted":"0","num_feature":"3088","num_nodes":"19","size_leaf_vector":"1"}},{"base_weights":[-9.349484E-5,-1.464537E-3,1.160469E-4,1.7309815E-3,-5.19506E-5,-4.0202253E-4,7.155254E-5,-8.383669E-5,9.0349914E-4,3.4835935E-4,-1.5405336E-4,3.66096E-4,3.695637E-5,3.5936595E-5,-1.1791598E-4],"categories":[],"categories_nodes":[],"categories_segments":[],"categories_sizes":[],"default_left":[0,0,0,0,0,0,0,0,0,0,0,0,0,0,0],"id":21,"left_children":[1,-1,3,-1,5,-1,7,9,11,-1,13,-1,-1,-1,-1],"loss_changes":[7.18042E-5,0E0,6.5838685E-5,0E0,1.0913831E-5,0E0,8.220105E-6,4.8996835E-6,2.32186E-6,0E0,3.4503898E-6,0E0,0E0,0E0,0E0],"parents":[2147483647,0,0,2,2,4,4,6,6,7,7,8,8,10,10],"right_children":[2,-1,4,-1,6,-1,8,10,12,-1,14,-1,-1,-1,-1],"split_conditions":[-1.7039338E-4,-1.464537E-3,6.934088E-4,1.7309815E-3,5.3939763E-3,-4.0202253E-4,4.3268763E-2,4.584186E-3,3.0550417E-2,3.4835935E-4,2.7293077E-2,3.66096E-4,3.695637E-5,3.5936595E-5,-1.1791598E-4],"split_indices":[2589,0,1558,0,2135,0,2070,1941,1584,0,1557,0,0,0,0],"split_type":[0,0,0,0,0,0,0,0,0,0,0,0,0,0,0],"sum_hessian":[7E1,2E0,6.8E1,1E0,6.7E1,5E0,6.2E1,5.3E1,9E0,2E0,5.1E1,6E0,3E0,2.4E1,2.7E1],"tree_param":{"num_deleted":"0","num_feature":"3088","num_nodes":"15","size_leaf_vector":"1"}},{"base_weights":[-5.7933434E-5,1.4713347E-3,-1.9888817E-4,-1.1716294E-3,-3.243939E-5,1.18474425E-4,-7.4657676E-4,-9.491543E-5,4.6227264E-4,-3.8557829E-4,-9.497311E-5,-2.3315991E-4,6.3516694E-4,2.1737005E-4,8.687377E-7,-2.1092594E-4,-3.4724293E-5,7.778406E-6,2.7999133E-4],"categories":[],"categories_nodes":[],"categories_segments":[],"categories_sizes":[],"default_left":[0,0,0,0,0,0,0,0,0,0,0,0,0,0,0,0,0,0,0],"id":22,"left_children":[1,-1,3,-1,5,7,9,11,13,-1,-1,15,17,-1,-1,-1,-1,-1,-1],"loss_changes":[5.06379E-5,0E0,4.3059776E-5,0E0,7.4170275E-6,4.2255706E-6,2.3727239E-6,3.7815703E-6,2.6487228E-6,0E0,0E0,1.6290489E-6,1.0656231E-6,0E0,0E0,0E0,0E0,0E0,0E0],"parents":[2147483647,0,0,2,2,4,4,5,5,6,6,7,7,8,8,11,11,12,12],"right_children":[2,-1,4,-1,6,8,10,12,14,-1,-1,16,18,-1,-1,-1,-1,-1,-1],"split_conditions":[6.934088E-4,1.4713347E-3,-1.7039338E-4,-1.1716294E-3,1.0075404E-2,2.9514356E-2,1.6458098E-2,1.9234186E-4,4.814891E-2,-3.8557829E-4,-9.497311E-5,1.3647051E-2,3.0988127E-2,2.1737005E-4,8.687377E-7,-2.1092594E-4,-3.4724293E-5,7.778406E-6,2.7999133E-4],"split_indices":[1558,0,2589,0,39,1823,1594,2446,2249,0,0,1643,1548,0,0,0,0,0,0],"split_type":[0,0,0,0,0,0,0,0,0,0,0,0,0,0,0,0,0,0,0],"sum_hessian":[7E1,1E0,6.9E1,2E0,6.7E1,5.6E1,1.1E1,3.5E1,2.1E1,4E0,7E0,3E1,5E0,1.3E1,8E0,5E0,2.5E1,2E0,3E0],"tree_param":{"num_deleted":"0","num_feature":"3088","num_nodes":"19","size_leaf_vector":"1"}},{"base_weights":[-3.942834E-5,1.2506336E-3,-1.5909957E-4,-9.3730376E-4,-2.5940182E-5,-2.487899E-4,6.518008E-5,3.9264857E-4,-8.864666E-5,1.82807E-4,-2.5749207E-6,9.42504E-5,-1.1217472E-4,1.604191E-4,-1.7119306E-5],"categories":[],"categories_nodes":[],"categories_segments":[],"categories_sizes":[],"default_left":[0,0,0,0,0,0,0,0,0,0,0,0,0,0,0],"id":23,"left_children":[1,-1,3,-1,5,-1,7,9,11,-1,-1,13,-1,-1,-1],"loss_changes":[3.6418944E-5,0E0,2.7558479E-5,0E0,5.031812E-6,0E0,3.1579584E-6,1.7442326E-6,2.2787613E-6,0E0,0E0,1.8300939E-6,0E0,0E0,0E0],"parents":[2147483647,0,0,2,2,4,4,6,6,7,7,8,8,11,11],"right_children":[2,-1,4,-1,6,-1,8,10,12,-1,-1,14,-1,-1,-1],"split_conditions":[6.934088E-4,1.2506336E-3,-1.7039338E-4,-9.3730376E-4,-2.1708629E-4,-2.487899E-4,1.9426968E-2,4.1117935E-4,5.0612696E-4,1.82807E-4,-2.5749207E-6,1.6284361E-2,-1.1217472E-4,1.604191E-4,-1.7119306E-5],"split_indices":[1558,0,2589,0,3078,0,2014,2635,2454,0,0,2042,0,0,0],"split_type":[0,0,0,0,0,0,0,0,0,0,0,0,0,0,0],"sum_hessian":[7E1,1E0,6.9E1,2E0,6.7E1,6E0,6.1E1,1.9E1,4.2E1,1.2E1,7E0,2.6E1,1.6E1,6E0,2E1],"tree_param":{"num_deleted":"0","num_feature":"3088","num_nodes":"15","size_leaf_vector":"1"}},{"base_weights":[-2.3716431E-5,1.06304E-3,-1.2529713E-4,-1.9741755E-3,1.6667851E-5,-7.43606E-4,6.580353E-6,-1.0251403E-4,1.02636164E-4,2.2813083E-4,4.903154E-5,1.5502817E-4,-4.6172492E-5,9.052545E-5,-1.528144E-5],"categories":[],"categories_nodes":[],"categories_segments":[],"categories_sizes":[],"default_left":[0,0,0,0,0,0,0,0,0,0,0,0,0,0,0],"id":24,"left_children":[1,-1,3,5,7,-1,-1,-1,9,-1,11,13,-1,-1,-1],"loss_changes":[2.6171327E-5,0E0,1.8406225E-5,5.089667E-6,2.0684947E-6,0E0,0E0,0E0,1.866815E-6,0E0,1.120918E-6,1.0428525E-6,0E0,0E0,0E0],"parents":[2147483647,0,0,2,2,3,3,4,4,8,8,10,10,11,11],"right_children":[2,-1,4,6,8,-1,-1,-1,10,-1,12,14,-1,-1,-1],"split_conditions":[6.934088E-4,1.06304E-3,-1.6200503E-4,-1.8738521E-2,1.598172E-2,-7.43606E-4,6.580353E-6,-1.0251403E-4,-6.2266795E-4,2.2813083E-4,3.5226118E-2,2.2697039E-5,-4.6172492E-5,9.052545E-5,-1.528144E-5],"split_indices":[1558,0,2589,0,1725,0,0,0,2412,0,2118,2449,0,0,0],"split_type":[0,0,0,0,0,0,0,0,0,0,0,0,0,0,0],"sum_hessian":[7E1,1E0,6.9E1,4E0,6.5E1,3E0,1E0,1.2E1,5.3E1,3E0,5E1,3.3E1,1.7E1,1.9E1,1.4E1],"tree_param":{"num_deleted":"0","num_feature":"3088","num_nodes":"15","size_leaf_vector":"1"}},{"base_weights":[-9.833271E-6,9.035826E-4,-9.602923E-5,-6.0112163E-4,-1.0453384E-5,6.2795036E-5,-1.1871661E-4,1.03046004E-4,-1.29326145E-5],"categories":[],"categories_nodes":[],"categories_segments":[],"categories_sizes":[],"default_left":[0,0,0,0,0,0,0,0,0],"id":25,"left_children":[1,-1,3,-1,5,7,-1,-1,-1],"loss_changes":[1.8782237E-5,0E0,1.14068225E-5,0E0,1.943831E-6,1.7389325E-6,0E0,0E0,0E0],"parents":[2147483647,0,0,2,2,4,4,5,5],"right_children":[2,-1,4,-1,6,8,-1,-1,-1],"split_conditions":[6.934088E-4,9.035826E-4,-1.7039338E-4,-6.0112163E-4,4.258255E-2,3.3647332E-2,-1.1871661E-4,1.03046004E-4,-1.29326145E-5],"split_indices":[1558,0,2589,0,1987,1645,0,0,0],"split_type":[0,0,0,0,0,0,0,0,0],"sum_hessian":[7E1,1E0,6.9E1,2E0,6.7E1,5.7E1,1E1,1.5E1,4.2E1],"tree_param":{"num_deleted":"0","num_feature":"3088","num_nodes":"9","size_leaf_vector":"1"}},{"base_weights":[-3.0265885E-6,7.6804165E-4,-7.6216646E-5,-5.065173E-4,-3.9704746E-6,-1.1048148E-4,5.784277E-5,3.9415936E-5,-5.637972E-5],"categories":[],"categories_nodes":[],"categories_segments":[],"categories_sizes":[],"default_left":[0,0,0,0,0,0,0,0,0],"id":26,"left_children":[1,-1,3,-1,5,-1,7,-1,-1],"loss_changes":[1.3514598E-5,0E0,8.146436E-6,0E0,1.5525691E-6,0E0,1.0911291E-6,0E0,0E0],"parents":[2147483647,0,0,2,2,4,4,6,6],"right_children":[2,-1,4,-1,6,-1,8,-1,-1],"split_conditions":[6.934088E-4,7.6804165E-4,7.912297E-3,-5.065173E-4,1.2946406E-2,-1.1048148E-4,7.045228E-2,3.9415936E-5,-5.637972E-5],"split_indices":[1558,0,1700,0,1725,0,2185,0,0],"split_type":[0,0,0,0,0,0,0,0,0],"sum_hessian":[7E1,1E0,6.9E1,2E0,6.7E1,9E0,5.8E1,4.5E1,1.3E1],"tree_param":{"num_deleted":"0","num_feature":"3088","num_nodes":"9","size_leaf_vector":"1"}},{"base_weights":[-2.1777207E-7,6.528318E-4,-6.239534E-5,-4.1919743E-4,-2.5838176E-6,-7.056768E-5,6.683227E-5,-9.685755E-5,8.483002E-6],"categories":[],"categories_nodes":[],"categories_segments":[],"categories_sizes":[],"default_left":[0,0,0,0,0,0,0,0,0],"id":27,"left_children":[1,-1,3,-1,5,7,-1,-1,-1],"loss_changes":[9.743394E-6,0E0,5.5854807E-6,0E0,1.057529E-6,1.3308181E-6,0E0,0E0,0E0],"parents":[2147483647,0,0,2,2,4,4,5,5],"right_children":[2,-1,4,-1,6,8,-1,-1,-1],"split_conditions":[6.934088E-4,6.528318E-4,-1.7039338E-4,-4.1919743E-4,8.9374173E-4,1.4588404E-2,6.683227E-5,-9.685755E-5,8.483002E-6],"split_indices":[1558,0,2589,0,2814,1763,0,0,0],"split_type":[0,0,0,0,0,0,0,0,0],"sum_hessian":[7E1,1E0,6.9E1,2E0,6.7E1,5.2E1,1.5E1,1.4E1,3.8E1],"tree_param":{"num_deleted":"0","num_feature":"3088","num_nodes":"9","size_leaf_vector":"1"}},{"base_weights":[2.8463842E-6,5.5490434E-4,-4.9960985E-5,-3.5360752E-4,1.7120449E-7],"categories":[],"categories_nodes":[],"categories_segments":[],"categories_sizes":[],"default_left":[0,0,0,0,0],"id":28,"left_children":[1,-1,3,-1,-1],"loss_changes":[7.0167926E-6,0E0,3.993238E-6,0E0,0E0],"parents":[2147483647,0,0,2,2],"right_children":[2,-1,4,-1,-1],"split_conditions":[6.934088E-4,5.5490434E-4,7.912297E-3,-3.5360752E-4,1.7120449E-7],"split_indices":[1558,0,1700,0,0],"split_type":[0,0,0,0,0],"sum_hessian":[7E1,1E0,6.9E1,2E0,6.7E1],"tree_param":{"num_deleted":"0","num_feature":"3088","num_nodes":"5","size_leaf_vector":"1"}},{"base_weights":[4.824356E-6,4.7166648E-4,-4.002734E-5,-3.0001442E-4,8.745448E-7],"categories":[],"categories_nodes":[],"categories_segments":[],"categories_sizes":[],"default_left":[0,0,0,0,0],"id":29,"left_children":[1,-1,3,-1,-1],"loss_changes":[5.0542612E-6,0E0,2.8887125E-6,0E0,0E0],"parents":[2147483647,0,0,2,2],"right_children":[2,-1,4,-1,-1],"split_conditions":[6.934088E-4,4.7166648E-4,-1.7039338E-4,-3.0001442E-4,8.745448E-7],"split_indices":[1558,0,2589,0,0],"split_type":[0,0,0,0,0],"sum_hessian":[7E1,1E0,6.9E1,2E0,6.7E1],"tree_param":{"num_deleted":"0","num_feature":"3088","num_nodes":"5","size_leaf_vector":"1"}},{"base_weights":[5.792433E-6,-4.2265012E-5,3.3275486E-4,-2.5297256E-4,-1.7308673E-6],"categories":[],"categories_nodes":[],"categories_segments":[],"categories_sizes":[],"default_left":[0,0,0,0,0],"id":30,"left_children":[1,3,-1,-1,-1],"loss_changes":[3.8117341E-6,2.0121438E-6,0E0,0E0,0E0],"parents":[2147483647,0,0,1,1],"right_children":[2,4,-1,-1,-1],"split_conditions":[1.1775952E-1,7.912297E-3,3.3275486E-4,-2.5297256E-4,-1.7308673E-6],"split_indices":[1935,1700,0,0,0],"split_type":[0,0,0,0,0],"sum_hessian":[7E1,6.8E1,2E0,2E0,6.6E1],"tree_param":{"num_deleted":"0","num_feature":"3088","num_nodes":"5","size_leaf_vector":"1"}},{"base_weights":[5.1512893E-6,2.9523374E-4,-3.7486894E-5,-2.1454172E-4,-1.975427E-6],"categories":[],"categories_nodes":[],"categories_segments":[],"categories_sizes":[],"default_left":[0,0,0,0,0],"id":31,"left_children":[1,-1,3,-1,-1],"loss_changes":[3.0005112E-6,0E0,1.4402132E-6,0E0,0E0],"parents":[2147483647,0,0,2,2],"right_children":[2,-1,4,-1,-1],"split_conditions":[4.23491E-3,2.9523374E-4,-1.7039338E-4,-2.1454172E-4,-1.975427E-6],"split_indices":[1703,0,2589,0,0],"split_type":[0,0,0,0,0],"sum_hessian":[7E1,2E0,6.8E1,2E0,6.6E1],"tree_param":{"num_deleted":"0","num_feature":"3088","num_nodes":"5","size_leaf_vector":"1"}},{"base_weights":[4.7087933E-6,-3.1518735E-5,2.5091172E-4,-1.6748329E-4,2.6507982E-7],"categories":[],"categories_nodes":[],"categories_segments":[],"categories_sizes":[],"default_left":[0,0,0,0,0],"id":32,"left_children":[1,3,-1,-1,-1],"loss_changes":[2.1655287E-6,1.1782003E-6,0E0,0E0,0E0],"parents":[2147483647,0,0,1,1],"right_children":[2,4,-1,-1,-1],"split_conditions":[2.1772922E-3,1.1379588E-3,2.5091172E-4,-1.6748329E-4,2.6507982E-7],"split_indices":[2494,1883,0,0,0],"split_type":[0,0,0,0,0],"sum_hessian":[7E1,6.8E1,2E0,3E0,6.5E1],"tree_param":{"num_deleted":"0","num_feature":"3088","num_nodes":"5","size_leaf_vector":"1"}},{"base_weights":[4.492989E-6,-1.01718915E-5,1.9684732E-4],"categories":[],"categories_nodes":[],"categories_segments":[],"categories_sizes":[],"default_left":[0,0,0],"id":33,"left_children":[1,-1,-1],"loss_changes":[1.798914E-6,0E0,0E0],"parents":[2147483647,0,0],"right_children":[2,-1,-1],"split_conditions":[1.1252761E-1,-1.01718915E-5,1.9684732E-4],"split_indices":[1867,0,0],"split_type":[0,0,0],"sum_hessian":[7E1,6.7E1,3E0],"tree_param":{"num_deleted":"0","num_feature":"3088","num_nodes":"3","size_leaf_vector":"1"}},{"base_weights":[5.7882617E-6,2.0206571E-4,-6.998655E-6],"categories":[],"categories_nodes":[],"categories_segments":[],"categories_sizes":[],"default_left":[0,0,0],"id":34,"left_children":[1,-1,-1],"loss_changes":[1.3961918E-6,0E0,0E0],"parents":[2147483647,0,0],"right_children":[2,-1,-1],"split_conditions":[1.1489075E-3,2.0206571E-4,-6.998655E-6],"split_indices":[1558,0,0],"split_type":[0,0,0],"sum_hessian":[7E1,2E0,6.8E1],"tree_param":{"num_deleted":"0","num_feature":"3088","num_nodes":"3","size_leaf_vector":"1"}},{"base_weights":[6.7815236E-6,-5.6611375E-6,1.7835498E-4],"categories":[],"categories_nodes":[],"categories_segments":[],"categories_sizes":[],"default_left":[0,0,0],"id":35,"left_children":[1,-1,-1],"loss_changes":[1.0816552E-6,0E0,0E0],"parents":[2147483647,0,0],"right_children":[2,-1,-1],"split_conditions":[1.4105926E-1,-5.6611375E-6,1.7835498E-4],"split_indices":[1559,0,0],"split_type":[0,0,0],"sum_hessian":[7E1,6.8E1,2E0],"tree_param":{"num_deleted":"0","num_feature":"3088","num_nodes":"3","size_leaf_vector":"1"}},{"base_weights":[7.1811005E-6],"categories":[],"categories_nodes":[],"categories_segments":[],"categories_sizes":[],"default_left":[0],"id":36,"left_children":[-1],"loss_changes":[0E0],"parents":[2147483647],"right_children":[-1],"split_conditions":[2.1543303E-6],"split_indices":[0],"split_type":[0],"sum_hessian":[7E1],"tree_param":{"num_deleted":"0","num_feature":"3088","num_nodes":"1","size_leaf_vector":"1"}},{"base_weights":[5.0635354E-6],"categories":[],"categories_nodes":[],"categories_segments":[],"categories_sizes":[],"default_left":[0],"id":37,"left_children":[-1],"loss_changes":[0E0],"parents":[2147483647],"right_children":[-1],"split_conditions":[1.5190607E-6],"split_indices":[0],"split_type":[0],"sum_hessian":[7E1],"tree_param":{"num_deleted":"0","num_feature":"3088","num_nodes":"1","size_leaf_vector":"1"}},{"base_weights":[3.5881105E-6],"categories":[],"categories_nodes":[],"categories_segments":[],"categories_sizes":[],"default_left":[0],"id":38,"left_children":[-1],"loss_changes":[0E0],"parents":[2147483647],"right_children":[-1],"split_conditions":[1.0764333E-6],"split_indices":[0],"split_type":[0],"sum_hessian":[7E1],"tree_param":{"num_deleted":"0","num_feature":"3088","num_nodes":"1","size_leaf_vector":"1"}},{"base_weights":[2.5302854E-6],"categories":[],"categories_nodes":[],"categories_segments":[],"categories_sizes":[],"default_left":[0],"id":39,"left_children":[-1],"loss_changes":[0E0],"parents":[2147483647],"right_children":[-1],"split_conditions":[7.5908565E-7],"split_indices":[0],"split_type":[0],"sum_hessian":[7E1],"tree_param":{"num_deleted":"0","num_feature":"3088","num_nodes":"1","size_leaf_vector":"1"}},{"base_weights":[1.7703262E-6],"categories":[],"categories_nodes":[],"categories_segments":[],"categories_sizes":[],"default_left":[0],"id":40,"left_children":[-1],"loss_changes":[0E0],"parents":[2147483647],"right_children":[-1],"split_conditions":[5.310979E-7],"split_indices":[0],"split_type":[0],"sum_hessian":[7E1],"tree_param":{"num_deleted":"0","num_feature":"3088","num_nodes":"1","size_leaf_vector":"1"}},{"base_weights":[1.2417285E-6],"categories":[],"categories_nodes":[],"categories_segments":[],"categories_sizes":[],"default_left":[0],"id":41,"left_children":[-1],"loss_changes":[0E0],"parents":[2147483647],"right_children":[-1],"split_conditions":[3.7251854E-7],"split_indices":[0],"split_type":[0],"sum_hessian":[7E1],"tree_param":{"num_deleted":"0","num_feature":"3088","num_nodes":"1","size_leaf_vector":"1"}},{"base_weights":[8.8682896E-7],"categories":[],"categories_nodes":[],"categories_segments":[],"categories_sizes":[],"default_left":[0],"id":42,"left_children":[-1],"loss_changes":[0E0],"parents":[2147483647],"right_children":[-1],"split_conditions":[2.660487E-7],"split_indices":[0],"split_type":[0],"sum_hessian":[7E1],"tree_param":{"num_deleted":"0","num_feature":"3088","num_nodes":"1","size_leaf_vector":"1"}},{"base_weights":[6.4549835E-7],"categories":[],"categories_nodes":[],"categories_segments":[],"categories_sizes":[],"default_left":[0],"id":43,"left_children":[-1],"loss_changes":[0E0],"parents":[2147483647],"right_children":[-1],"split_conditions":[1.9364951E-7],"split_indices":[0],"split_type":[0],"sum_hessian":[7E1],"tree_param":{"num_deleted":"0","num_feature":"3088","num_nodes":"1","size_leaf_vector":"1"}},{"base_weights":[4.668943E-7],"categories":[],"categories_nodes":[],"categories_segments":[],"categories_sizes":[],"default_left":[0],"id":44,"left_children":[-1],"loss_changes":[0E0],"parents":[2147483647],"right_children":[-1],"split_conditions":[1.400683E-7],"split_indices":[0],"split_type":[0],"sum_hessian":[7E1],"tree_param":{"num_deleted":"0","num_feature":"3088","num_nodes":"1","size_leaf_vector":"1"}},{"base_weights":[3.450878E-7],"categories":[],"categories_nodes":[],"categories_segments":[],"categories_sizes":[],"default_left":[0],"id":45,"left_children":[-1],"loss_changes":[0E0],"parents":[2147483647],"right_children":[-1],"split_conditions":[1.0352635E-7],"split_indices":[0],"split_type":[0],"sum_hessian":[7E1],"tree_param":{"num_deleted":"0","num_feature":"3088","num_nodes":"1","size_leaf_vector":"1"}},{"base_weights":[2.3154516E-7],"categories":[],"categories_nodes":[],"categories_segments":[],"categories_sizes":[],"default_left":[0],"id":46,"left_children":[-1],"loss_changes":[0E0],"parents":[2147483647],"right_children":[-1],"split_conditions":[6.946355E-8],"split_indices":[0],"split_type":[0],"sum_hessian":[7E1],"tree_param":{"num_deleted":"0","num_feature":"3088","num_nodes":"1","size_leaf_vector":"1"}},{"base_weights":[1.7075996E-7],"categories":[],"categories_nodes":[],"categories_segments":[],"categories_sizes":[],"default_left":[0],"id":47,"left_children":[-1],"loss_changes":[0E0],"parents":[2147483647],"right_children":[-1],"split_conditions":[5.122799E-8],"split_indices":[0],"split_type":[0],"sum_hessian":[7E1],"tree_param":{"num_deleted":"0","num_feature":"3088","num_nodes":"1","size_leaf_vector":"1"}},{"base_weights":[1.13988634E-7],"categories":[],"categories_nodes":[],"categories_segments":[],"categories_sizes":[],"default_left":[0],"id":48,"left_children":[-1],"loss_changes":[0E0],"parents":[2147483647],"right_children":[-1],"split_conditions":[3.4196592E-8],"split_indices":[0],"split_type":[0],"sum_hessian":[7E1],"tree_param":{"num_deleted":"0","num_feature":"3088","num_nodes":"1","size_leaf_vector":"1"}},{"base_weights":[6.125742E-8],"categories":[],"categories_nodes":[],"categories_segments":[],"categories_sizes":[],"default_left":[0],"id":49,"left_children":[-1],"loss_changes":[0E0],"parents":[2147483647],"right_children":[-1],"split_conditions":[1.8377225E-8],"split_indices":[0],"split_type":[0],"sum_hessian":[7E1],"tree_param":{"num_deleted":"0","num_feature":"3088","num_nodes":"1","size_leaf_vector":"1"}},{"base_weights":[5.721731E-8],"categories":[],"categories_nodes":[],"categories_segments":[],"categories_sizes":[],"default_left":[0],"id":50,"left_children":[-1],"loss_changes":[0E0],"parents":[2147483647],"right_children":[-1],"split_conditions":[1.7165194E-8],"split_indices":[0],"split_type":[0],"sum_hessian":[7E1],"tree_param":{"num_deleted":"0","num_feature":"3088","num_nodes":"1","size_leaf_vector":"1"}},{"base_weights":[5.3203443E-8],"categories":[],"categories_nodes":[],"categories_segments":[],"categories_sizes":[],"default_left":[0],"id":51,"left_children":[-1],"loss_changes":[0E0],"parents":[2147483647],"right_children":[-1],"split_conditions":[1.5961033E-8],"split_indices":[0],"split_type":[0],"sum_hessian":[7E1],"tree_param":{"num_deleted":"0","num_feature":"3088","num_nodes":"1","size_leaf_vector":"1"}},{"base_weights":[4.9189573E-8],"categories":[],"categories_nodes":[],"categories_segments":[],"categories_sizes":[],"default_left":[0],"id":52,"left_children":[-1],"loss_changes":[0E0],"parents":[2147483647],"right_children":[-1],"split_conditions":[1.4756872E-8],"split_indices":[0],"split_type":[0],"sum_hessian":[7E1],"tree_param":{"num_deleted":"0","num_feature":"3088","num_nodes":"1","size_leaf_vector":"1"}},{"base_weights":[4.6880942E-8],"categories":[],"categories_nodes":[],"categories_segments":[],"categories_sizes":[],"default_left":[0],"id":53,"left_children":[-1],"loss_changes":[0E0],"parents":[2147483647],"right_children":[-1],"split_conditions":[1.4064283E-8],"split_indices":[0],"split_type":[0],"sum_hessian":[7E1],"tree_param":{"num_deleted":"0","num_feature":"3088","num_nodes":"1","size_leaf_vector":"1"}},{"base_weights":[4.457231E-8],"categories":[],"categories_nodes":[],"categories_segments":[],"categories_sizes":[],"default_left":[0],"id":54,"left_children":[-1],"loss_changes":[0E0],"parents":[2147483647],"right_children":[-1],"split_conditions":[1.3371694E-8],"split_indices":[0],"split_type":[0],"sum_hessian":[7E1],"tree_param":{"num_deleted":"0","num_feature":"3088","num_nodes":"1","size_leaf_vector":"1"}},{"base_weights":[4.2289916E-8],"categories":[],"categories_nodes":[],"categories_segments":[],"categories_sizes":[],"default_left":[0],"id":55,"left_children":[-1],"loss_changes":[0E0],"parents":[2147483647],"right_children":[-1],"split_conditions":[1.2686975E-8],"split_indices":[0],"split_type":[0],"sum_hessian":[7E1],"tree_param":{"num_deleted":"0","num_feature":"3088","num_nodes":"1","size_leaf_vector":"1"}},{"base_weights":[4.0007517E-8],"categories":[],"categories_nodes":[],"categories_segments":[],"categories_sizes":[],"default_left":[0],"id":56,"left_children":[-1],"loss_changes":[0E0],"parents":[2147483647],"right_children":[-1],"split_conditions":[1.2002256E-8],"split_indices":[0],"split_type":[0],"sum_hessian":[7E1],"tree_param":{"num_deleted":"0","num_feature":"3088","num_nodes":"1","size_leaf_vector":"1"}},{"base_weights":[3.7751356E-8],"categories":[],"categories_nodes":[],"categories_segments":[],"categories_sizes":[],"default_left":[0],"id":57,"left_children":[-1],"loss_changes":[0E0],"parents":[2147483647],"right_children":[-1],"split_conditions":[1.1325407E-8],"split_indices":[0],"split_type":[0],"sum_hessian":[7E1],"tree_param":{"num_deleted":"0","num_feature":"3088","num_nodes":"1","size_leaf_vector":"1"}},{"base_weights":[3.5495194E-8],"categories":[],"categories_nodes":[],"categories_segments":[],"categories_sizes":[],"default_left":[0],"id":58,"left_children":[-1],"loss_changes":[0E0],"parents":[2147483647],"right_children":[-1],"split_conditions":[1.06485585E-8],"split_indices":[0],"split_type":[0],"sum_hessian":[7E1],"tree_param":{"num_deleted":"0","num_feature":"3088","num_nodes":"1","size_leaf_vector":"1"}},{"base_weights":[3.344891E-8],"categories":[],"categories_nodes":[],"categories_segments":[],"categories_sizes":[],"default_left":[0],"id":59,"left_children":[-1],"loss_changes":[0E0],"parents":[2147483647],"right_children":[-1],"split_conditions":[1.00346735E-8],"split_indices":[0],"split_type":[0],"sum_hessian":[7E1],"tree_param":{"num_deleted":"0","num_feature":"3088","num_nodes":"1","size_leaf_vector":"1"}},{"base_weights":[3.1428858E-8],"categories":[],"categories_nodes":[],"categories_segments":[],"categories_sizes":[],"default_left":[0],"id":60,"left_children":[-1],"loss_changes":[0E0],"parents":[2147483647],"right_children":[-1],"split_conditions":[9.428658E-9],"split_indices":[0],"split_type":[0],"sum_hessian":[7E1],"tree_param":{"num_deleted":"0","num_feature":"3088","num_nodes":"1","size_leaf_vector":"1"}},{"base_weights":[2.9408806E-8],"categories":[],"categories_nodes":[],"categories_segments":[],"categories_sizes":[],"default_left":[0],"id":61,"left_children":[-1],"loss_changes":[0E0],"parents":[2147483647],"right_children":[-1],"split_conditions":[8.822642E-9],"split_indices":[0],"split_type":[0],"sum_hessian":[7E1],"tree_param":{"num_deleted":"0","num_feature":"3088","num_nodes":"1","size_leaf_vector":"1"}},{"base_weights":[2.7388754E-8],"categories":[],"categories_nodes":[],"categories_segments":[],"categories_sizes":[],"default_left":[0],"id":62,"left_children":[-1],"loss_changes":[0E0],"parents":[2147483647],"right_children":[-1],"split_conditions":[8.2166265E-9],"split_indices":[0],"split_type":[0],"sum_hessian":[7E1],"tree_param":{"num_deleted":"0","num_feature":"3088","num_nodes":"1","size_leaf_vector":"1"}},{"base_weights":[2.5394936E-8],"categories":[],"categories_nodes":[],"categories_segments":[],"categories_sizes":[],"default_left":[0],"id":63,"left_children":[-1],"loss_changes":[0E0],"parents":[2147483647],"right_children":[-1],"split_conditions":[7.618481E-9],"split_indices":[0],"split_type":[0],"sum_hessian":[7E1],"tree_param":{"num_deleted":"0","num_feature":"3088","num_nodes":"1","size_leaf_vector":"1"}},{"base_weights":[2.340112E-8],"categories":[],"categories_nodes":[],"categories_segments":[],"categories_sizes":[],"default_left":[0],"id":64,"left_children":[-1],"loss_changes":[0E0],"parents":[2147483647],"right_children":[-1],"split_conditions":[7.020336E-9],"split_indices":[0],"split_type":[0],"sum_hessian":[7E1],"tree_param":{"num_deleted":"0","num_feature":"3088","num_nodes":"1","size_leaf_vector":"1"}},{"base_weights":[2.3086306E-8],"categories":[],"categories_nodes":[],"categories_segments":[],"categories_sizes":[],"default_left":[0],"id":65,"left_children":[-1],"loss_changes":[0E0],"parents":[2147483647],"right_children":[-1],"split_conditions":[6.9258923E-9],"split_indices":[0],"split_type":[0],"sum_hessian":[7E1],"tree_param":{"num_deleted":"0","num_feature":"3088","num_nodes":"1","size_leaf_vector":"1"}},{"base_weights":[2.2771493E-8],"categories":[],"categories_nodes":[],"categories_segments":[],"categories_sizes":[],"default_left":[0],"id":66,"left_children":[-1],"loss_changes":[0E0],"parents":[2147483647],"right_children":[-1],"split_conditions":[6.8314483E-9],"split_indices":[0],"split_type":[0],"sum_hessian":[7E1],"tree_param":{"num_deleted":"0","num_feature":"3088","num_nodes":"1","size_leaf_vector":"1"}},{"base_weights":[2.245668E-8],"categories":[],"categories_nodes":[],"categories_segments":[],"categories_sizes":[],"default_left":[0],"id":67,"left_children":[-1],"loss_changes":[0E0],"parents":[2147483647],"right_children":[-1],"split_conditions":[6.7370043E-9],"split_indices":[0],"split_type":[0],"sum_hessian":[7E1],"tree_param":{"num_deleted":"0","num_feature":"3088","num_nodes":"1","size_leaf_vector":"1"}},{"base_weights":[2.2141867E-8],"categories":[],"categories_nodes":[],"categories_segments":[],"categories_sizes":[],"default_left":[0],"id":68,"left_children":[-1],"loss_changes":[0E0],"parents":[2147483647],"right_children":[-1],"split_conditions":[6.6425603E-9],"split_indices":[0],"split_type":[0],"sum_hessian":[7E1],"tree_param":{"num_deleted":"0","num_feature":"3088","num_nodes":"1","size_leaf_vector":"1"}},{"base_weights":[2.1827052E-8],"categories":[],"categories_nodes":[],"categories_segments":[],"categories_sizes":[],"default_left":[0],"id":69,"left_children":[-1],"loss_changes":[0E0],"parents":[2147483647],"right_children":[-1],"split_conditions":[6.548116E-9],"split_indices":[0],"split_type":[0],"sum_hessian":[7E1],"tree_param":{"num_deleted":"0","num_feature":"3088","num_nodes":"1","size_leaf_vector":"1"}},{"base_weights":[2.1512239E-8],"categories":[],"categories_nodes":[],"categories_segments":[],"categories_sizes":[],"default_left":[0],"id":70,"left_children":[-1],"loss_changes":[0E0],"parents":[2147483647],"right_children":[-1],"split_conditions":[6.453672E-9],"split_indices":[0],"split_type":[0],"sum_hessian":[7E1],"tree_param":{"num_deleted":"0","num_feature":"3088","num_nodes":"1","size_leaf_vector":"1"}},{"base_weights":[2.1223661E-8],"categories":[],"categories_nodes":[],"categories_segments":[],"categories_sizes":[],"default_left":[0],"id":71,"left_children":[-1],"loss_changes":[0E0],"parents":[2147483647],"right_children":[-1],"split_conditions":[6.3670984E-9],"split_indices":[0],"split_type":[0],"sum_hessian":[7E1],"tree_param":{"num_deleted":"0","num_feature":"3088","num_nodes":"1","size_leaf_vector":"1"}},{"base_weights":[2.0935081E-8],"categories":[],"categories_nodes":[],"categories_segments":[],"categories_sizes":[],"default_left":[0],"id":72,"left_children":[-1],"loss_changes":[0E0],"parents":[2147483647],"right_children":[-1],"split_conditions":[6.2805245E-9],"split_indices":[0],"split_type":[0],"sum_hessian":[7E1],"tree_param":{"num_deleted":"0","num_feature":"3088","num_nodes":"1","size_leaf_vector":"1"}},{"base_weights":[2.0646503E-8],"categories":[],"categories_nodes":[],"categories_segments":[],"categories_sizes":[],"default_left":[0],"id":73,"left_children":[-1],"loss_changes":[0E0],"parents":[2147483647],"right_children":[-1],"split_conditions":[6.193951E-9],"split_indices":[0],"split_type":[0],"sum_hessian":[7E1],"tree_param":{"num_deleted":"0","num_feature":"3088","num_nodes":"1","size_leaf_vector":"1"}},{"base_weights":[2.0357925E-8],"categories":[],"categories_nodes":[],"categories_segments":[],"categories_sizes":[],"default_left":[0],"id":74,"left_children":[-1],"loss_changes":[0E0],"parents":[2147483647],"right_children":[-1],"split_conditions":[6.1073777E-9],"split_indices":[0],"split_type":[0],"sum_hessian":[7E1],"tree_param":{"num_deleted":"0","num_feature":"3088","num_nodes":"1","size_leaf_vector":"1"}},{"base_weights":[2.0069345E-8],"categories":[],"categories_nodes":[],"categories_segments":[],"categories_sizes":[],"default_left":[0],"id":75,"left_children":[-1],"loss_changes":[0E0],"parents":[2147483647],"right_children":[-1],"split_conditions":[6.020804E-9],"split_indices":[0],"split_type":[0],"sum_hessian":[7E1],"tree_param":{"num_deleted":"0","num_feature":"3088","num_nodes":"1","size_leaf_vector":"1"}},{"base_weights":[1.9780767E-8],"categories":[],"categories_nodes":[],"categories_segments":[],"categories_sizes":[],"default_left":[0],"id":76,"left_children":[-1],"loss_changes":[0E0],"parents":[2147483647],"right_children":[-1],"split_conditions":[5.9342304E-9],"split_indices":[0],"split_type":[0],"sum_hessian":[7E1],"tree_param":{"num_deleted":"0","num_feature":"3088","num_nodes":"1","size_leaf_vector":"1"}},{"base_weights":[1.9492187E-8],"categories":[],"categories_nodes":[],"categories_segments":[],"categories_sizes":[],"default_left":[0],"id":77,"left_children":[-1],"loss_changes":[0E0],"parents":[2147483647],"right_children":[-1],"split_conditions":[5.8476566E-9],"split_indices":[0],"split_type":[0],"sum_hessian":[7E1],"tree_param":{"num_deleted":"0","num_feature":"3088","num_nodes":"1","size_leaf_vector":"1"}},{"base_weights":[1.920361E-8],"categories":[],"categories_nodes":[],"categories_segments":[],"categories_sizes":[],"default_left":[0],"id":78,"left_children":[-1],"loss_changes":[0E0],"parents":[2147483647],"right_children":[-1],"split_conditions":[5.761083E-9],"split_indices":[0],"split_type":[0],"sum_hessian":[7E1],"tree_param":{"num_deleted":"0","num_feature":"3088","num_nodes":"1","size_leaf_vector":"1"}},{"base_weights":[1.891503E-8],"categories":[],"categories_nodes":[],"categories_segments":[],"categories_sizes":[],"default_left":[0],"id":79,"left_children":[-1],"loss_changes":[0E0],"parents":[2147483647],"right_children":[-1],"split_conditions":[5.6745093E-9],"split_indices":[0],"split_type":[0],"sum_hessian":[7E1],"tree_param":{"num_deleted":"0","num_feature":"3088","num_nodes":"1","size_leaf_vector":"1"}},{"base_weights":[1.8626451E-8],"categories":[],"categories_nodes":[],"categories_segments":[],"categories_sizes":[],"default_left":[0],"id":80,"left_children":[-1],"loss_changes":[0E0],"parents":[2147483647],"right_children":[-1],"split_conditions":[5.5879354E-9],"split_indices":[0],"split_type":[0],"sum_hessian":[7E1],"tree_param":{"num_deleted":"0","num_feature":"3088","num_nodes":"1","size_leaf_vector":"1"}},{"base_weights":[1.8337873E-8],"categories":[],"categories_nodes":[],"categories_segments":[],"categories_sizes":[],"default_left":[0],"id":81,"left_children":[-1],"loss_changes":[0E0],"parents":[2147483647],"right_children":[-1],"split_conditions":[5.501362E-9],"split_indices":[0],"split_type":[0],"sum_hessian":[7E1],"tree_param":{"num_deleted":"0","num_feature":"3088","num_nodes":"1","size_leaf_vector":"1"}},{"base_weights":[1.8049294E-8],"categories":[],"categories_nodes":[],"categories_segments":[],"categories_sizes":[],"default_left":[0],"id":82,"left_children":[-1],"loss_changes":[0E0],"parents":[2147483647],"right_children":[-1],"split_conditions":[5.414788E-9],"split_indices":[0],"split_type":[0],"sum_hessian":[7E1],"tree_param":{"num_deleted":"0","num_feature":"3088","num_nodes":"1","size_leaf_vector":"1"}},{"base_weights":[1.7760716E-8],"categories":[],"categories_nodes":[],"categories_segments":[],"categories_sizes":[],"default_left":[0],"id":83,"left_children":[-1],"loss_changes":[0E0],"parents":[2147483647],"right_children":[-1],"split_conditions":[5.3282148E-9],"split_indices":[0],"split_type":[0],"sum_hessian":[7E1],"tree_param":{"num_deleted":"0","num_feature":"3088","num_nodes":"1","size_leaf_vector":"1"}},{"base_weights":[1.7472136E-8],"categories":[],"categories_nodes":[],"categories_segments":[],"categories_sizes":[],"default_left":[0],"id":84,"left_children":[-1],"loss_changes":[0E0],"parents":[2147483647],"right_children":[-1],"split_conditions":[5.241641E-9],"split_indices":[0],"split_type":[0],"sum_hessian":[7E1],"tree_param":{"num_deleted":"0","num_feature":"3088","num_nodes":"1","size_leaf_vector":"1"}},{"base_weights":[1.7183558E-8],"categories":[],"categories_nodes":[],"categories_segments":[],"categories_sizes":[],"default_left":[0],"id":85,"left_children":[-1],"loss_changes":[0E0],"parents":[2147483647],"right_children":[-1],"split_conditions":[5.1550675E-9],"split_indices":[0],"split_type":[0],"sum_hessian":[7E1],"tree_param":{"num_deleted":"0","num_feature":"3088","num_nodes":"1","size_leaf_vector":"1"}},{"base_weights":[1.6894978E-8],"categories":[],"categories_nodes":[],"categories_segments":[],"categories_sizes":[],"default_left":[0],"id":86,"left_children":[-1],"loss_changes":[0E0],"parents":[2147483647],"right_children":[-1],"split_conditions":[5.0684936E-9],"split_indices":[0],"split_type":[0],"sum_hessian":[7E1],"tree_param":{"num_deleted":"0","num_feature":"3088","num_nodes":"1","size_leaf_vector":"1"}},{"base_weights":[1.66064E-8],"categories":[],"categories_nodes":[],"categories_segments":[],"categories_sizes":[],"default_left":[0],"id":87,"left_children":[-1],"loss_changes":[0E0],"parents":[2147483647],"right_children":[-1],"split_conditions":[4.98192E-9],"split_indices":[0],"split_type":[0],"sum_hessian":[7E1],"tree_param":{"num_deleted":"0","num_feature":"3088","num_nodes":"1","size_leaf_vector":"1"}},{"base_weights":[1.6317822E-8],"categories":[],"categories_nodes":[],"categories_segments":[],"categories_sizes":[],"default_left":[0],"id":88,"left_children":[-1],"loss_changes":[0E0],"parents":[2147483647],"right_children":[-1],"split_conditions":[4.895347E-9],"split_indices":[0],"split_type":[0],"sum_hessian":[7E1],"tree_param":{"num_deleted":"0","num_feature":"3088","num_nodes":"1","size_leaf_vector":"1"}},{"base_weights":[1.6029242E-8],"categories":[],"categories_nodes":[],"categories_segments":[],"categories_sizes":[],"default_left":[0],"id":89,"left_children":[-1],"loss_changes":[0E0],"parents":[2147483647],"right_children":[-1],"split_conditions":[4.808773E-9],"split_indices":[0],"split_type":[0],"sum_hessian":[7E1],"tree_param":{"num_deleted":"0","num_feature":"3088","num_nodes":"1","size_leaf_vector":"1"}},{"base_weights":[1.5740664E-8],"categories":[],"categories_nodes":[],"categories_segments":[],"categories_sizes":[],"default_left":[0],"id":90,"left_children":[-1],"loss_changes":[0E0],"parents":[2147483647],"right_children":[-1],"split_conditions":[4.7221995E-9],"split_indices":[0],"split_type":[0],"sum_hessian":[7E1],"tree_param":{"num_deleted":"0","num_feature":"3088","num_nodes":"1","size_leaf_vector":"1"}},{"base_weights":[1.5452084E-8],"categories":[],"categories_nodes":[],"categories_segments":[],"categories_sizes":[],"default_left":[0],"id":91,"left_children":[-1],"loss_changes":[0E0],"parents":[2147483647],"right_children":[-1],"split_conditions":[4.635625E-9],"split_indices":[0],"split_type":[0],"sum_hessian":[7E1],"tree_param":{"num_deleted":"0","num_feature":"3088","num_nodes":"1","size_leaf_vector":"1"}},{"base_weights":[1.518974E-8],"categories":[],"categories_nodes":[],"categories_segments":[],"categories_sizes":[],"default_left":[0],"id":92,"left_children":[-1],"loss_changes":[0E0],"parents":[2147483647],"right_children":[-1],"split_conditions":[4.556922E-9],"split_indices":[0],"split_type":[0],"sum_hessian":[7E1],"tree_param":{"num_deleted":"0","num_feature":"3088","num_nodes":"1","size_leaf_vector":"1"}},{"base_weights":[1.4927396E-8],"categories":[],"categories_nodes":[],"categories_segments":[],"categories_sizes":[],"default_left":[0],"id":93,"left_children":[-1],"loss_changes":[0E0],"parents":[2147483647],"right_children":[-1],"split_conditions":[4.478219E-9],"split_indices":[0],"split_type":[0],"sum_hessian":[7E1],"tree_param":{"num_deleted":"0","num_feature":"3088","num_nodes":"1","size_leaf_vector":"1"}},{"base_weights":[1.4665051E-8],"categories":[],"categories_nodes":[],"categories_segments":[],"categories_sizes":[],"default_left":[0],"id":94,"left_children":[-1],"loss_changes":[0E0],"parents":[2147483647],"right_children":[-1],"split_conditions":[4.3995154E-9],"split_indices":[0],"split_type":[0],"sum_hessian":[7E1],"tree_param":{"num_deleted":"0","num_feature":"3088","num_nodes":"1","size_leaf_vector":"1"}},{"base_weights":[1.4402707E-8],"categories":[],"categories_nodes":[],"categories_segments":[],"categories_sizes":[],"default_left":[0],"id":95,"left_children":[-1],"loss_changes":[0E0],"parents":[2147483647],"right_children":[-1],"split_conditions":[4.320812E-9],"split_indices":[0],"split_type":[0],"sum_hessian":[7E1],"tree_param":{"num_deleted":"0","num_feature":"3088","num_nodes":"1","size_leaf_vector":"1"}},{"base_weights":[1.4140363E-8],"categories":[],"categories_nodes":[],"categories_segments":[],"categories_sizes":[],"default_left":[0],"id":96,"left_children":[-1],"loss_changes":[0E0],"parents":[2147483647],"right_children":[-1],"split_conditions":[4.242109E-9],"split_indices":[0],"split_type":[0],"sum_hessian":[7E1],"tree_param":{"num_deleted":"0","num_feature":"3088","num_nodes":"1","size_leaf_vector":"1"}},{"base_weights":[1.3878018E-8],"categories":[],"categories_nodes":[],"categories_segments":[],"categories_sizes":[],"default_left":[0],"id":97,"left_children":[-1],"loss_changes":[0E0],"parents":[2147483647],"right_children":[-1],"split_conditions":[4.1634056E-9],"split_indices":[0],"split_type":[0],"sum_hessian":[7E1],"tree_param":{"num_deleted":"0","num_feature":"3088","num_nodes":"1","size_leaf_vector":"1"}},{"base_weights":[1.3615674E-8],"categories":[],"categories_nodes":[],"categories_segments":[],"categories_sizes":[],"default_left":[0],"id":98,"left_children":[-1],"loss_changes":[0E0],"parents":[2147483647],"right_children":[-1],"split_conditions":[4.0847024E-9],"split_indices":[0],"split_type":[0],"sum_hessian":[7E1],"tree_param":{"num_deleted":"0","num_feature":"3088","num_nodes":"1","size_leaf_vector":"1"}},{"base_weights":[1.3353329E-8],"categories":[],"categories_nodes":[],"categories_segments":[],"categories_sizes":[],"default_left":[0],"id":99,"left_children":[-1],"loss_changes":[0E0],"parents":[2147483647],"right_children":[-1],"split_conditions":[4.005999E-9],"split_indices":[0],"split_type":[0],"sum_hessian":[7E1],"tree_param":{"num_deleted":"0","num_feature":"3088","num_nodes":"1","size_leaf_vector":"1"}}]},"name":"gbtree"},"learner_model_param":{"base_score":"6.9285715E-1","boost_from_average":"1","num_class":"0","num_feature":"3088","num_target":"1"},"objective":{"name":"reg:squarederror","reg_loss_param":{"scale_pos_weight":"1"}}},"version":[3,0,1]}